1864 100
ee -0.0073133106 -0.0007684428 0.00064968975 -0.0038104488 0.0004677168 0.0031156435 -0.00083597656 -0.0034434902 -9.351869e-05 -0.00034896933 0.0063145203 -0.002242955 0.002202801 0.0034270594 -0.00038836917 0.00221199 -0.0023633135 0.0020730502 -0.0014212942 0.0011908974 0.0031495376 0.0028025713 0.0047733067 -0.005096955 -0.0014098193 0.0052457694 0.0027400213 0.0016667646 0.0027092325 0.0024400237 0.0019346039 -0.0027664658 -0.0006766621 0.0030403358 -0.00398494 0.0011817584 -0.0009391091 -0.0068921433 0.0026099083 0.0048277564 0.0004546952 -0.0007488606 0.0053895987 -0.004852644 0.0044442187 -0.0014345009 0.0007154982 -0.00096383435 0.0015571559 -0.00548627 0.004557281 0.0014423489 -0.0014250763 -0.0034260377 -0.0021489915 -0.0035634285 -0.002854937 -0.004725221 0.0029695185 0.0034577204 -0.004456802 0.004620162 -0.0038604573 0.0028125418 -0.0012753641 0.0044639097 -0.0007518817 0.0021700247 0.0048280926 -0.0032839791 0.00494961 9.345762e-05 -0.0026635989 -0.0018546928 0.0028096233 0.0027370015 0.0024952332 -0.00084364443 -0.0004647135 0.005444674 0.0014479434 0.0014947753 -0.0037235222 -0.0027326336 0.0048705554 0.0011944586 -0.004738845 4.4741366e-05 0.0055958997 0.0013641767 -0.00084877736 -0.003050954 0.0023720218 0.0030739408 0.0066353376 0.00044844014 0.00026545898 0.006768613 -0.0028827519 -0.00060049753
toh -0.003318596 0.0034860447 0.0028479863 -0.0001266007 -0.004565142 -0.005076565 -0.0022185196 6.0070497e-06 0.0034510326 -0.0025421663 0.0068473085 0.0014180903 -0.0055618384 -0.0027801476 -0.0023473084 0.005268492 0.00028881792 0.003954967 0.0010023577 -0.0051445803 0.005372382 -0.0043644253 0.004516602 -0.0001473647 -0.0013375357 -0.000426309 0.0034584533 -0.0047676275 0.0022038666 0.0032685818 0.0053517316 -0.0004064172 -0.0033831599 -0.002269675 0.0034941153 -0.0044836844 -0.0034210773 -0.006884854 0.00092015107 0.0026110893 -0.0041469056 0.0024572322 0.0047357506 0.0043287165 0.002366626 -0.0014516737 0.003974171 0.0007768056 0.000587979 -0.0008763164 0.00016713237 -0.0006767085 -0.00020733592 0.0041836365 -0.0013085046 0.0016549975 0.0017836146 -0.003052831 0.004680012 0.0019467287 -0.0030547047 -0.0011663609 0.0033307346 0.0046334406 0.005172912 -0.0014681914 -0.0036647765 0.004185847 0.004530164 -0.0015994805 -0.0038345486 0.0026527678 0.000428951 0.0023702993 0.0053975214 0.002873872 0.0030381435 -0.004861108 0.0021575983 0.003461534 0.0037633558 -0.0027245872 -0.0025039525 -0.0020133548 -0.00044242473 -0.0002478128 0.0033696177 -0.003522755 -0.0010746632 -0.003938268 -0.0061442717 0.0024193868 -0.0022037625 0.005761263 -0.0011700878 -0.00035545276 -0.0042780275 0.006664971 -0.0018423034 0.0021352908
rr -0.006798385 -0.00036323848 -0.0009355446 -0.00037164916 -0.0029627325 -0.0031306029 -0.0036512513 0.0034947633 0.005390473 0.0037771908 0.0007566547 0.0044838306 -0.0009139818 -0.0026980694 0.0044441605 0.0031029389 0.004283205 0.0022046096 0.00014413205 0.0032522122 -0.0010523146 -0.0049478486 0.0028481227 -0.0031705054 0.0042800666 0.004373021 0.005957565 0.003294762 0.0026505308 0.0017821214 0.0008628963 4.6584413e-05 -0.0031869118 -0.001002438 -0.0025630994 -0.0009339471 0.0036192862 -0.003958574 0.0034051642 0.005328761 0.00014048365 -0.0023044867 0.005180864 -0.0019948485 0.0022608687 0.0039374563 0.0054691266 -0.0010889355 0.0053274687 -0.0016732723 0.0014535239 -0.0017985033 0.0015346351 0.0022836712 0.002970341 -0.0039190124 0.0031712411 -0.00458971 -0.0029127279 0.0011264734 0.005309224 0.003662025 0.0030253702 -0.0032900146 0.0015612318 0.0047720694 -0.00056996883 -0.0032917454 -0.003652819 0.0020990334 -0.001971627 0.0027241686 0.0046456605 0.003236502 -0.0037764134 -0.0031251959 -0.001942807 -0.0058261557 0.0033224202 -0.0033641888 0.0019161793 -0.0021143812 -0.0017743558 -0.005083004 -0.0037571096 0.0011322367 -0.004323854 -0.0057227244 0.0012385421 0.002487679 0.00216814 -0.0036769006 -0.000756103 -0.0027424642 0.0064347256 -0.0005125521 0.0041547287 0.006533434 0.0025726832 0.00029379726
na 0.0025105285 0.0028555805 -0.00092535856 -0.00025404472 0.0006473699 -0.0036439958 0.0006231814 -0.0015908411 -0.0012294705 -0.004968159 0.0045657256 0.003286529 -0.00521859 0.004050429 -0.0016424168 -0.0026640305 0.003668147 0.0014981526 -0.004975036 0.002010503 -0.003914473 -0.0013925197 -0.0024954837 -0.0027428407 0.004263947 0.0044076564 0.0016574677 -0.004400371 -0.00031980954 0.0015515713 -0.0021777053 -0.0003359191 -0.0023933288 0.0009834518 -0.0033921567 -0.0018162103 -0.004599674 -0.002853141 -0.0029725337 0.005949595 0.004053656 0.0031089808 -0.0003146613 -0.00033470642 0.002839011 -0.0002847059 0.005620478 -1.43565885e-05 -0.0007507046 -0.005141261 0.0045638517 -0.0046445006 -0.0040593613 0.0034017446 -0.0042879493 -0.0015653764 0.0017158064 0.0037338913 0.0009577177 0.004972772 -0.0037983274 0.0004043386 0.0017927391 0.0051491186 0.0053445627 0.004276766 0.0033509089 0.0008407729 0.002882106 -0.0047665723 -0.0038665854 0.004454374 0.0042736847 -0.0046780133 -0.0035264078 0.0017323204 -0.00021422804 -0.00222705 -0.003866127 -0.003100202 0.0032286146 -0.0027240266 0.001991817 0.0012452621 0.0028888173 0.00012560506 -0.0021748971 0.0014831518 -0.0025233591 0.002376959 -0.003602734 0.0030864533 0.0029369816 -0.0037647816 0.0020338693 0.0021325862 0.0018442478 -0.00094067806 -0.0016884123 -0.000131205
er -0.0065740747 -0.0015700181 0.001622449 -0.0058908644 -0.00023512535 -0.0068240464 -0.0003789356 0.0037783813 0.0048083006 0.0019668003 0.007444906 -0.0035616863 0.00017969187 0.003223166 -0.0017371811 0.004278371 0.002020834 -0.0033629555 -0.0026380348 -0.002767247 0.006095088 -0.0024342204 -7.025572e-05 -0.0033333146 -0.00167599 0.004149974 -0.0019470366 -0.00013193315 0.003840589 0.0008081301 0.0031995033 -0.0025786504 -0.0056683403 -0.004305694 0.0047986056 -0.0047604623 0.0023072138 -0.006560322 0.0019203903 -4.4248074e-05 0.00040745243 0.0032518213 -0.0019064792 0.0014639312 0.005493011 -0.0020187618 0.0014917927 0.002274157 -0.0018236912 -0.0026929376 0.004281433 -0.0025732862 -0.004653833 0.004663201 0.0025566847 -0.0048809433 -0.0036042887 0.00066758593 0.0013142782 -0.003731935 0.0045320136 0.007719811 -0.0020257726 0.0041239844 0.0017063317 -0.0010007938 -0.0007964991 -0.0039295177 0.0027261416 -0.0046128435 -0.0042367373 -0.0027155192 -0.0043668994 -0.0016741594 0.005530883 -0.00312569 0.0006136091 -0.006883711 -0.0058594705 -0.0026447193 0.0043371674 0.0030169375 0.00013953302 -0.0035448018 -0.0010381814 0.0023848899 -0.002792773 -0.000820131 0.005943739 -0.0057785693 -0.006542528 -0.0021012728 -0.0048003937 0.002531 0.0036094722 -0.0019383781 -0.0028171428 -0.0020130004 -0.0038276208 -0.0011583804
ki -0.0039721997 0.0012660476 -0.0020095187 -0.0034832032 0.0032156743 -0.0018631101 -0.0019869492 0.004605936 -0.002437996 -0.0055209044 -0.00047086555 0.0032112948 0.0029132555 -7.710818e-06 5.1442774e-05 0.003865212 -0.0011570517 -0.000836462 0.0025950586 -0.00054973655 0.0015925716 -0.001419894 0.002544084 -0.0014072617 -0.0044588535 0.0019920596 0.0054487907 -0.00458001 0.00025087318 -0.00048686098 -0.0005485118 0.0005587202 0.0026000908 0.003198256 -0.00083152304 -0.00023348491 -0.0049591437 -0.004593667 -0.0028559754 -0.0028603598 0.0044062063 -0.0011861242 -0.00085821626 0.0038843465 -0.00081257126 0.0036508245 -0.0026807806 0.0039596506 0.0035378523 0.003653465 -0.002827756 -0.00343209 0.0042306297 -0.0043835496 0.00042531666 -0.0025333061 0.0023085205 -0.0020541463 0.003975893 1.6367967e-05 -0.004584533 -0.0001789169 -0.0012022364 0.0050466135 0.0009923272 -0.0042314925 -0.0020563214 -0.0045534885 -0.0030072546 0.0024786263 0.0029178094 0.000112731905 -0.0038842505 -0.0039109653 -0.0014147059 -0.0054786084 0.0030608855 0.0013783532 -0.0022231634 0.0007184953 -0.0024145073 -0.002499771 0.00083620875 -0.0011931552 -3.0085774e-05 0.00382188 -0.0036988833 -0.004471743 -0.0012100119 0.0020421988 0.00015897116 -0.0018987765 -0.0030173352 0.005034162 0.0024472205 0.0049479213 -0.00025614636 0.0028606479 0.0021350735 0.0018863891
ta 0.0023748924 -0.0055041183 -0.003741196 0.0031075939 -0.004784641 -0.0053739804 -0.003402999 0.0006846393 0.005430686 0.00013778429 0.004457206 -0.004456537 -0.0042184046 -0.0022455363 0.0017031671 0.0016781491 -0.0025387667 0.0037141405 -0.0011726478 0.00069637835 -0.0035946306 -0.0060358117 -0.00092175376 -0.002997099 -0.004129238 -0.0003403592 0.0053933803 0.0010249129 -0.002877844 0.0044506383 0.004342039 9.066919e-06 -0.0030415712 0.0028055543 -0.0025125407 0.0008923853 -0.0040629217 -0.005909519 -0.0030963107 -0.0004405866 0.0041853297 -0.0021769737 0.0047884807 -0.0036468673 0.0011000963 0.003085354 0.0020238375 -0.0020125327 0.0024659303 -0.0038485827 0.0018468695 -0.0050987373 -0.004054441 0.00047184978 -0.0043659713 -9.491513e-06 0.004432532 -0.004061406 -0.000675719 0.0054940586 0.0032751663 0.00740454 -0.0031383014 0.00021722556 0.0012739742 0.0012251846 0.0015602333 0.0039998274 0.0033545669 -0.00016316827 -0.0035184873 0.003717427 0.0041826903 0.00092424126 0.0031291596 -0.0026255434 -0.0025594204 -0.0034488821 -0.0003922746 -0.0041204635 -0.0051658256 0.0019442505 -0.002204448 -0.005203512 -0.0021878053 -0.0004045876 0.0010524356 -0.0055647073 0.004193498 0.0023220247 0.0014197564 -0.0020042246 -0.0024442018 0.0018239863 0.002145679 0.0042065424 0.0010663617 0.0011828911 0.0039043813 0.00027360502
k 2.3534403e-05 -0.0058103674 0.0043398812 -0.0037508982 -0.0054985816 0.0014991286 0.0004209459 -0.0013914438 0.00085114763 -0.0017921187 -0.00024423774 0.0043479986 -0.0047933436 -0.0011064404 -0.0019125175 0.005712853 0.0015055564 -0.0024117217 -0.0057605687 -0.00463006 0.0015491587 -0.0027489567 0.0023488384 -0.002839511 0.002806606 -0.0017957368 0.001947134 -0.0034947947 0.0018314654 0.004021304 -0.0019655637 -7.9089245e-05 0.0019131628 -0.0038848303 -0.0014977951 -0.0042380816 0.002008027 -0.0010398778 0.0007444336 0.0016824079 -0.0035598937 0.002695584 0.0040021073 -0.0040300665 -0.004086663 0.00403061 -0.0006784864 0.00027664768 -0.0041255364 -0.004630781 0.0015850745 -0.003162915 0.0039044337 0.003424335 -0.0018643915 0.002471982 -0.0048016887 0.0026665933 0.0020695843 -0.004109281 0.001875399 0.0031581772 0.0020912173 0.00034519465 0.00081879925 -0.0047464753 -0.0017117038 -0.0024983026 -0.0007922325 0.0039727427 0.0044901846 0.0038890964 0.0045007044 -0.004167234 -0.002340175 -0.00483596 0.0027645987 -0.005379192 0.00187107 -0.0008607047 0.0044231284 0.004467016 -0.0022015884 -0.0012115131 0.00245364 -0.0057069487 -0.0030363102 -0.0040908316 -0.0035901421 -0.003954964 -0.0029720247 -0.00115259 -0.0029404205 0.0029665325 -0.0021432424 -0.0035111937 -0.001174143 -0.0011169902 -0.000591866 0.003111977
ami 0.00017650418 0.002319201 -0.00066354545 0.00092010567 0.0010839172 -0.0043328223 -0.004096368 -0.0005605715 0.00028843404 0.0026868184 0.0049305344 0.0008799718 -0.004266107 -0.0015736267 -0.0037207964 0.00022711433 0.0006467638 -0.0016157441 -0.0009907119 -0.0019182744 0.0025425302 0.0018573789 -0.004335632 0.0036908272 -0.003227154 -0.0041948883 0.005325943 0.0022486157 -0.002618525 -0.0023117843 0.0019200741 -0.0052435044 -0.0005415507 -0.0049487627 0.00380888 0.0016376646 -0.0056632753 0.0020619691 0.0037194195 -0.001795958 0.0028806792 -0.004455731 0.0036318947 0.0038149017 9.554174e-05 0.0023452565 5.0901337e-05 0.0037677966 -0.0029338468 -0.0049665906 -0.002997393 0.0033024615 -0.003864675 0.0012085328 0.0027650734 0.0007416053 -0.00011434476 -0.0036798355 0.004583335 0.0004330745 0.0035837307 0.0021380591 0.00068302435 -0.0008146783 -0.0012133602 0.00069900905 0.000590708 -0.0025267038 -0.002760379 0.00075245363 0.0051250886 -0.0019472089 0.0043867873 0.004025627 0.0027669566 -0.0013742716 -0.0010467299 0.0016979827 -0.0023456095 0.004778388 -0.0019839343 0.0039820005 0.0014360505 -0.00054467825 0.001939054 -0.00020182942 -0.0037235369 0.0016083127 0.00033814838 -0.0056832 -0.0006690549 -0.00363162 -0.0012651705 0.005666255 0.0021866483 -0.0040615974 -0.0021636703 0.0022589904 -0.002126556 -0.0016539675
tui -0.0051561724 -0.0008267501 0.0035892576 -0.0054451083 0.0021408729 0.0010271816 -0.0012967176 0.00062272337 0.0025302113 -0.0044188173 -0.00092506676 -0.0015446962 -0.0007158228 0.0038112025 -0.0044720597 -0.0028234478 0.004317748 -0.0016022897 0.003168114 2.7216322e-05 0.003547811 -0.004096196 0.00088258856 -0.00038764434 0.0034453038 -0.003043017 0.0007203603 -0.0010794014 -0.002118358 0.0010716338 0.0059397067 -0.0006476329 0.001126526 0.0028557254 0.0032912495 0.00029297362 -0.0030937006 -0.006463145 -0.0010521692 0.0056186784 0.0006683777 0.0015542094 0.000102584425 -0.0012892953 0.0011849545 0.0014654201 0.0041811042 -0.0012536264 -0.0025066216 0.0026432446 0.0030743636 -0.004490633 -0.0042470214 0.0041563953 0.0023046853 -2.2915554e-05 0.0013470778 -0.0055687525 0.0047152424 -0.0025092596 -0.0010421573 0.0061903424 0.0035738957 -0.0033401821 0.0036503454 -0.00469193 0.00047567848 -0.0029237357 0.00025082368 0.002282559 0.0026578177 0.0038534072 0.0013947766 -0.0007151908 0.004723992 -0.00036447585 -0.0031508275 0.0023500544 0.0012449119 -0.004045309 0.00054969033 -0.0014306155 -0.002422152 -0.0023344231 0.0023695624 -0.0050327606 -0.004537374 0.0005906762 -0.003613626 -0.0035523504 -0.003183078 0.0015472294 -0.00019146713 0.0019198889 0.0031964807 -0.00059795496 -0.004715505 0.0013005596 -0.002035138 0.0023237634
kore -0.0036891827 -0.0017963113 0.0051715495 -0.0034779713 0.0031706365 0.003583715 0.0012300771 -0.0023250377 0.004218111 -0.0034158875 0.0028376316 0.004560256 -0.0031544175 0.0016821417 0.00078274147 -0.0006913614 0.0008740722 -0.0038421238 0.0024799146 -9.880928e-05 -0.0040008584 0.000685271 -0.0010441401 -0.002377744 0.0035712626 -0.0042933854 -0.0009672314 -8.280343e-05 -0.0048072813 -0.0032016467 0.0038055666 -0.004585127 0.00095635984 -0.0017390418 -0.0009962042 -0.00040439807 -7.7013814e-05 -0.006548036 0.0007382498 0.0011248327 -0.0013059451 -0.0027113399 0.0049535185 0.0041313483 0.0038493425 0.0032492154 0.0041314685 0.00036159914 -0.002347593 -0.0006339127 -0.0048985914 -0.00048138914 0.002405665 -0.002504489 -0.00081142294 0.0031266399 0.0015022177 -0.0024965764 0.0021343632 -0.001698755 -0.0021618768 0.004355833 -0.0005984942 0.0046563563 0.005564371 -0.00042565723 0.0041742804 -0.0033709672 0.002630743 -0.00043164304 0.0045228386 -0.0020528012 -0.0034100916 -0.0012240525 0.0045812223 -0.00079603906 -0.0032460443 0.0010322618 0.00023224042 0.0022911162 -0.003971567 -0.0022341332 0.0038066392 -0.0030760325 0.00034846863 -0.0042718383 0.0038171306 -0.0032436165 0.0003969281 -0.0034788887 0.0036935287 0.0044210595 -0.0014419432 0.005413699 0.0027611356 0.0009682295 -0.0037174001 -0.001905379 0.0015506817 0.0050651683
trina -0.004814515 0.00042102314 -0.0034986963 -0.0026376683 -0.004603258 -0.0023065514 -0.0010428289 -0.0001992871 0.0033452003 0.0019985682 0.006156758 0.003888723 -0.00019578007 0.000828924 -0.00083004165 0.0022654973 -0.0013726626 0.0016951123 -0.0016281387 -0.005305368 -7.058443e-06 0.0022690084 -0.0049552284 -0.0014220293 -0.0044746655 -0.0029618675 -0.0041014664 -0.0024731539 0.00473006 -0.00085141335 0.0037920775 0.001083922 0.0021062507 -0.0016543672 -0.0035065028 0.003444229 -0.005421224 -0.0035041801 -0.0015503363 -0.0017539621 0.000341581 0.003692139 5.815757e-05 -0.00013337897 0.0044896062 -0.001505348 -0.0016028406 -0.003819589 -0.00018465468 -0.005004173 0.002994983 -0.0005843679 6.924873e-05 -0.0013110823 -0.0009779856 0.002198379 -0.0005110453 -0.0032934502 0.0014233191 -0.0037236083 0.0022799645 0.0048264395 -0.0043364065 -0.00027624084 0.0048809303 -0.0026354466 -0.005088057 0.0031033382 0.002338412 -0.0044182013 0.0023342853 0.0032370172 -0.0021206925 0.00088818354 -0.0004797864 -0.0031203302 0.0034981405 0.00096556416 -0.0028467956 0.0050742356 -0.0040160418 8.202518e-05 -0.0017352612 0.0048953053 -0.0045604487 -0.0011735306 -0.000554128 -0.004671288 0.0019639377 -0.0014729387 -0.0004338642 -0.003634153 -0.0022364815 -0.0017227773 0.0011508426 0.0048044277 0.0011021437 -0.0027919158 -0.002222384 -0.0006197445
to -0.0028709918 -0.0008944583 0.0034668576 -0.0047002947 0.0016119167 -0.0057370737 0.0011476532 0.0053873123 0.0041989465 -0.00028846716 0.0027861183 0.0036031958 -9.912803e-05 0.003758466 -0.0024754042 0.0006864971 0.00029953488 -0.0033180807 -0.0056114374 -0.0042305505 0.0005778917 0.0024976195 0.0036176366 -0.002157189 0.0009826531 -0.0027979717 2.4058038e-05 0.0003169533 0.0044769477 0.00049635 0.006125675 -0.0018172621 0.002890219 0.004355753 -0.002084854 -0.0028661191 0.0026622612 -0.0017069201 0.0022478958 0.004502144 0.0035100058 -0.00065832236 0.0021795458 -0.0033373884 -0.0019733116 0.0029014952 0.0037400713 0.0039991597 0.0023149229 -0.00065292866 0.00416351 -0.0033232043 0.0046306904 0.0052029733 0.0009621341 -0.002319777 0.0008808835 0.001723704 -0.0017296725 0.0012551753 -0.0016630945 0.005399066 0.002018588 -0.0006862504 0.0047764387 -0.00040470884 0.00032531723 0.0018949397 -0.0009326707 0.0014274216 0.004249458 0.0017329601 -0.0030759142 -0.0026686967 0.005601704 -0.0024036267 0.0019754185 -0.004918055 0.0031406255 -0.0031169318 -0.0011204542 0.004490703 -0.00118876 -0.00444329 0.0048496937 0.0022528036 0.0010416849 -0.0039992803 0.0046997513 -0.003548542 0.00071099156 0.0007894489 -0.00063928135 -0.0019497883 0.004835832 0.0055961804 -0.0022011355 0.0010585637 -0.004233722 -0.0015723055
hobe -0.0024727022 -0.0044179107 0.0010347756 -0.0051344074 -0.0026108373 -0.0021685588 0.00328781 0.0034990238 0.0052035633 0.004001614 0.0046398696 0.0027822019 0.0008138818 0.0012072262 -0.001419677 -0.0033405432 0.0031230042 -0.00072535 -0.0034071794 -0.00435151 0.001553389 0.002018686 -0.0025706256 -0.004039864 -0.0022283779 0.0043455646 0.0025250053 -0.0022548991 0.0030767373 -0.0004204561 0.005221355 -0.0011403833 0.0037288547 -0.0049525974 0.0029565352 -0.0039027715 -0.0042220885 -0.002776467 -0.00046092484 0.0015717677 -0.00049924245 0.0049082176 -0.0023043405 -0.002730155 0.0020949556 0.0015024897 -0.0022594118 -0.0042560115 -0.003427088 -0.00072686124 -0.0027357363 0.004279646 0.004610182 -0.00017679883 -0.0020831951 -0.003604621 -0.004246941 0.0012543888 0.004675016 -0.00016380608 -0.0041040815 0.0030952357 0.0012282846 -0.00037667612 0.0013479415 -0.004951685 0.004055103 -0.0032308053 -0.0010621924 -0.0011307235 -0.002704087 0.0024184745 0.004272855 0.004607404 -0.0025139565 0.003665783 0.0009257639 -0.004482953 0.0017591153 -0.00042995854 0.0037154262 -0.0026809617 -0.004423958 0.0032518539 0.0007816809 -0.0043987334 0.0031532438 -0.0015148629 -0.0029985018 -0.0015129503 -0.0038107343 0.003020147 0.0001993603 0.00339399 0.0025748159 0.00071631646 0.0026414203 -0.0014822457 0.004455774 0.0031240752
the -0.002572694 -0.002601199 0.0043315254 -0.0023850447 0.0014789037 -0.0035658241 -0.0048072813 0.00045271695 0.001198454 0.0017707008 0.0035574003 -0.003812817 0.0018688756 0.002538548 0.0048827752 0.0044382857 0.0052344697 -0.0012926941 -0.0021808688 -0.0022060927 0.0030301958 0.0030139724 -0.003344377 -0.00049233984 0.00030170416 0.005217257 0.0019095222 -0.0010812745 -0.0041658226 0.00035632227 0.0037487017 -0.00017198852 -0.00533359 -0.0024131113 0.00074929046 0.0002943519 0.0023812319 -0.003406485 0.002973281 -0.0007184548 -0.0024675394 0.0018477611 0.0035693075 0.005372604 -0.0024645678 0.003169429 -0.0011531368 0.00037434322 0.0014362022 0.0013211606 0.0045834347 -0.0014199878 -0.0043664384 0.0028805342 0.0043275543 0.003614167 -0.0021873424 -0.003474502 -0.0023418246 0.0015612897 -0.0018311755 0.0021548395 0.0043636146 0.0015336302 0.0030672525 0.0009868278 0.0028159884 0.0007648403 0.0010501733 -0.0034962208 -0.00056962605 0.0022735999 -0.003331245 -0.0010323584 -0.0017005678 -0.0030897304 0.0039244476 -0.0031904615 -0.0012038209 0.0041347267 0.0017246907 0.0027789546 -0.0017689224 0.0016596684 -0.004211902 -0.004260682 -0.0037753633 -0.004916203 0.0029008212 0.0014826442 0.0012410491 -0.0034247055 -0.0012490466 0.0041310485 0.0043821796 -0.0009973153 -0.00091562496 0.0052040936 -0.0031980108 -0.00093504763
sob 0.0013173 -0.004292824 0.003094461 -0.003099633 -0.00029310712 0.0030757822 -0.0026800348 -0.000990883 0.004355474 -0.0025782306 0.0029590984 0.0031960702 -0.0024028406 -0.0011789184 0.0012156651 0.004206656 0.00551989 -0.0019622408 -0.0010163359 -0.00070586614 0.0051487354 -0.00060938415 -0.0013783661 -0.002159115 0.0007579053 0.0030655507 -0.0007206545 -0.0045836465 0.0018184256 0.000678947 0.0018678381 0.0024355492 -0.004470254 0.0020771176 -1.8952514e-05 -0.0034949828 -0.00046808572 -0.0013729894 -0.0004863004 0.005641687 -0.0021819752 -0.0001935819 0.0043496955 0.00023312353 0.0029012447 -0.00015042374 -0.0041228216 -0.0022924044 -0.0017935175 0.0030224011 0.0019985184 0.0028465136 0.0023438158 -0.00034231477 -0.0009189668 0.00391428 -0.003112526 -0.0027146302 0.0052247173 0.0012953875 0.001195353 -0.003172879 6.2656065e-05 -0.0035505989 0.0037143747 0.0044158967 -0.005634769 -2.2886143e-05 0.003126262 -0.004122924 0.0009960586 -0.0028785295 0.005078371 0.0009105467 -0.004048644 -0.0033682967 -0.0037499755 -0.002960396 -0.0024304604 0.00011336362 0.004121992 0.001381831 0.0038472142 -5.4053e-05 -0.0023492193 -0.00013095235 0.0002061277 -0.003234196 -0.0035328162 0.001239602 -0.005528566 -0.0014513985 0.003950735 0.0012191196 0.001279349 -0.0004425301 0.0027249337 -0.002485758 0.0016930988 -0.002296413
this 0.0022353986 0.003108122 -0.0016636773 0.004134285 0.00023735766 0.0013960341 -0.0004530656 -0.0029549464 0.004313693 0.0039102323 -5.1346527e-05 0.0038551975 0.0043661757 0.0034664439 0.0027289693 0.0049947132 -0.00090049 -0.0012733134 -0.0033156776 -0.0011240138 -0.0020401387 0.0004159991 0.0045439536 -0.0025807966 -0.0056260847 0.0041402774 0.0012252139 -0.0029932267 0.0010749714 0.0045265425 -0.0005512325 -0.0030342403 0.002644061 -0.0066319937 -0.005248234 -0.0022492264 0.0046893423 0.00035175495 -0.00015222645 0.003919481 -0.00019697747 -0.0017615315 -0.0053962693 -0.0059357337 -0.0055978256 0.00584806 0.0030221655 -0.0025136115 -0.0029509293 0.0015544243 -0.00440189 -0.0028781623 -0.0037836472 -0.003063851 0.0013670432 -0.000776595 0.0026206607 -0.0045923796 0.0020642143 -0.00067978416 0.0012363564 0.0032159179 0.002561753 0.0019171737 -0.0032115309 -0.0016297376 -0.005325365 0.004474229 -0.0038031659 0.001686577 -0.005430003 0.0036350593 0.00013383772 -0.0035425348 0.00048052645 -0.0040100613 -0.0017630429 -0.0036672875 -0.0046585114 0.0039862813 -0.0046123387 0.005865938 0.0010816489 -0.00081764074 -0.0028979685 -0.0039254604 -0.0015513264 0.00013309998 0.0024662493 0.0017818658 0.0051816786 -0.001296259 0.0020266364 0.0029247769 0.005634444 0.0030198258 0.0052585197 0.004043722 -0.000697155 -0.0015252081
oo 0.00052818976 0.0010484615 0.0019108554 -3.64198e-05 0.0027840135 -0.002881435 -0.0010654265 8.325071e-05 0.004220776 -0.0029516232 0.0036179735 -0.0031024574 -0.0053281453 -0.0029082664 0.00058371876 0.0014261832 0.0041750534 -0.0031879353 -0.004247643 0.0012717197 0.0040415796 0.002722054 -0.0046122624 -0.002185732 -0.004409965 -0.0041313646 0.005075672 -0.0053469287 0.0017381702 0.00315909 0.0033137663 -0.0052652 -0.0020065303 -0.004236198 -0.004163873 -0.00336478 -0.0052145384 -0.0055955164 -0.004397522 -2.5599875e-06 -0.00020007491 0.0039379764 0.0025228881 0.0014435202 -0.004292308 9.2271745e-05 -0.00018193843 -0.0016506924 0.005310477 0.0036968787 0.00038705906 -0.000926349 -0.0038252915 -0.002047407 -2.099578e-05 0.0030150965 0.0030494279 0.0038828559 0.0049487264 0.0009871457 0.0036689062 0.0048427507 -0.003331729 0.0021304404 -0.0041541005 0.001575185 0.0002234958 0.003766846 0.0044135507 -0.004844395 -0.0027804025 -0.0005091638 0.00048727286 0.0020038981 -0.0014620187 0.0038142132 -0.0036755677 -0.0047961823 -0.0034289989 0.0049453597 -0.0015116679 0.004641174 -0.0024282362 0.0015253703 0.0006016037 -0.003967481 0.00011231201 0.001547419 0.0035849863 0.0017457323 0.003510857 0.0038367568 0.0008919786 -0.003922818 0.004815726 0.0040318538 0.0025590183 0.0015840661 -0.00042275537 -0.0037466765
amar 0.0022274577 0.0019046637 0.00400936 -0.0045416867 -0.0043818015 0.0033920025 0.002403916 0.0021954996 0.00524285 0.0032702866 -0.0018715148 0.0006092919 -0.0030499822 0.003325008 0.003458691 0.0055793803 0.001478009 0.004858322 0.0003782591 0.0038464144 0.00011399284 -0.00374106 0.0047787484 0.0014372201 -0.0017656208 -0.0035887812 0.00034148392 0.004126613 -0.0005109951 0.0032979972 0.0020375922 -0.005228135 0.00025127613 0.0016110548 -0.0010088091 0.0034455138 0.000618106 -0.003467363 -0.0036929054 -0.0022176846 -0.001398281 0.00435531 0.0045644194 0.0030728541 0.002577 -0.0015261517 0.003649544 0.0048131305 0.0037769885 0.00250271 -0.0015157649 -0.0049013775 0.0048577264 -0.00236479 0.0032721143 -0.0020565668 -0.0006621729 -0.00057129585 0.003226665 0.003672278 -0.0024562136 0.005098296 -0.0017631332 0.0029089346 -0.002434446 -0.0042818817 -0.0015540953 -0.0049355077 -0.0020495132 -0.003236176 0.0037836654 -0.0003596032 -0.0048275404 0.0042120344 0.005618591 0.0025167721 -0.0034078006 -0.0011311607 -0.0021756918 -0.0035781516 -0.0036070854 0.00081453845 -0.0016103339 -0.0012057365 -0.00011311433 0.0025824124 -0.0014086476 0.0019748537 0.001677388 -0.0020707587 -0.004635105 -0.003826243 0.00048822895 -0.0022905467 0.0017034718 0.0026258512 -0.0010679897 0.0016441583 0.0010780613 -0.0020963508
theke -0.004183957 -0.002800581 0.0018478527 -0.0032197905 -0.004088071 -0.0037470227 0.00429457 0.0018579259 0.0012188437 -0.0031320786 -0.0031436482 0.002670879 -0.0055399705 0.0028332518 -0.0031996144 0.0010467645 -0.0013161058 -0.0044600503 -0.00502115 -0.0027324702 -0.0029213 -0.0052337497 0.0009880317 -0.0038257202 0.0042064474 -2.2483182e-05 0.00078829075 0.0020048 -0.0021489162 0.0039120414 0.0048982105 -0.0045006713 -0.0011071295 0.0031661484 -0.0042657186 -0.005360021 -0.0050987834 -0.0013510713 -0.0038305921 0.0037168672 0.002599565 -0.00013593596 -0.002672001 0.00043836533 0.0018964589 0.0016823258 0.0019263756 -0.0045678164 0.0027010646 -0.0019983626 -0.0001266408 0.0022194516 -0.0028803858 0.0040612556 0.0016286875 0.004131346 -0.00041730065 -0.0026843897 -0.0037952303 -0.003416592 -0.00029248136 0.0005701391 0.005061346 0.0030787138 -0.001233319 -0.003006022 -0.0030446036 -0.0036840031 0.0027375126 0.00019062511 0.0034061186 -0.004252818 -0.0023352518 0.00372186 0.0053457944 -0.0008083975 0.004364535 -0.006088806 0.0018864452 -0.0013917674 -0.0038287137 0.002065506 0.0018267136 -0.0025983057 0.003965283 0.0025060421 -0.0010348096 -0.0034340154 0.0023927635 0.00084308186 -0.0045350892 0.0030806973 0.0024601067 0.0044753803 -0.0018166256 0.0021595226 -0.0031728642 -0.0021121814 0.0017592973 0.00069139205
ekta -0.0017623961 0.002982372 0.0014800604 -0.0019659821 -0.0046474235 0.0028753018 -6.6414e-05 0.0023048187 0.004060673 -0.0011464901 0.0024492447 0.0044881054 -0.004030326 0.004865228 -0.00032552032 0.002847568 -0.004312129 -0.0037630633 -0.0009070277 0.003600457 0.0052554933 0.0005289676 -0.0045632175 -0.002192523 0.0026793536 0.0013261249 0.0034850477 0.00076519104 0.0025333425 0.0034582226 0.000340375 -0.0031931698 -0.0018776602 0.0045374287 0.0027091766 -0.0016059409 -0.0014127849 0.0015147687 0.00012449868 -0.0029946687 0.004815691 0.0029499016 0.00062552624 0.0008194314 0.0006319726 0.003113898 -0.0038102544 -0.0018682252 0.0039162193 -0.0026257015 0.004708653 -0.002462457 -0.0029997397 0.002585442 -0.004328867 0.0025807777 0.004528102 -0.003399162 3.0378234e-05 0.0007203068 -0.0017108906 -0.00016378237 0.005270137 -0.0036791519 0.0055357874 -0.0006976891 0.0027929773 -0.0010067428 0.0023492875 0.0032763998 -0.0044950643 -0.003374784 -0.004133977 0.00016357422 -0.0021901128 -0.004347938 0.004421656 0.003236638 -0.004415322 -0.0013807917 -0.0043816254 -0.0022642124 0.0023580054 -0.0048848693 0.0019538167 0.0025821475 -0.0034236063 0.0038900813 -0.0017641457 -0.00033005688 0.00013770522 -0.0051578195 -0.0010505448 0.005533401 0.006079 0.0037085433 -0.002416815 0.0031313398 0.0008331024 0.00021016829
was 0.0010053447 0.001830007 0.004208151 0.00095638185 -0.0008771082 -0.004866031 0.001949841 0.005560176 -0.00031555005 0.0029211037 0.0002846776 0.0047493754 -0.005165452 -0.0014232948 0.005502483 -0.0020535009 -0.005553236 0.0017633641 0.0021688254 -0.00013139303 -0.003362165 0.002950441 -0.0010449725 -0.0031593405 0.0007453411 0.0041670254 0.0014806569 -0.00529947 -0.00060830766 0.00018850692 0.005232974 -0.0054646214 0.0041938466 -0.005134306 -0.002161033 -0.005649827 0.0014857978 0.0038494128 0.001775906 -0.0029561103 -0.0028982554 0.0023718323 0.0027303004 -0.004045778 -0.0033518383 0.0006390171 -0.004082858 0.0050502955 0.0031114733 -0.0009234488 0.0040099407 -0.0031415194 -0.00077108026 0.0018235808 -0.0011131592 0.0003239849 -0.004029184 0.003741749 0.0014657191 -0.0018346868 0.004568413 0.0064133243 -0.0039053198 0.0029191666 -0.0021489346 -0.0037945162 0.0030928794 0.0053104917 -0.0017977734 0.0029623255 -0.0042466884 0.005239187 -0.002946514 -0.004792622 0.0012271244 0.00022475341 -0.0028589235 0.00033699337 0.002132281 0.00019659055 0.004781854 0.0034507737 0.0034954948 0.0058908192 -0.0039732554 -0.004923811 0.0005153088 -0.0022400138 0.0053233183 -0.004905689 -0.0039785854 -0.0029603136 0.0012461445 -0.0007753462 0.0021898742 -0.0046917666 0.005468619 0.0010217343 -0.0052860817 -0.0019309458
tahole 0.0032392768 0.0012215218 0.003747716 0.003649138 0.0014481227 0.0008212802 -0.00101714 -0.0013962245 -0.0022132264 -0.0023008252 0.0039753104 0.0039983536 0.0017592318 0.0058399746 0.004678494 -0.0033643642 0.0027873788 -0.0013999471 -0.004644195 -0.0028674842 0.00039837332 0.00043111562 0.001025807 0.001565436 0.0024322746 0.0038636194 -0.0007806449 0.0009415038 0.0013443228 -0.0027383792 0.005032527 -0.0024566709 0.00062165933 -0.0005696137 7.7054996e-05 -0.0009730995 -0.002063485 0.0032316698 0.002417225 0.0029474762 0.00015781718 4.3607968e-05 -0.0037936743 -0.0020943265 0.0016141278 0.0026907735 0.0025891848 -0.0005851379 0.002943519 -0.0018664304 0.0036578784 -0.004056406 0.0018566618 -0.0017916557 0.0021761174 0.0012342543 0.0025100047 0.002192566 -0.001320489 0.002422728 0.0044388184 -0.0018377012 0.004040747 0.0024739755 0.0010338868 0.0015747027 0.0009409315 -0.004139338 -0.00027744548 -0.0003025995 0.0016059271 -0.003117878 0.0027993687 0.00477981 -0.0040291147 0.0041160053 -0.0029874584 0.001273801 -0.00046784934 0.0032640926 0.0022480818 0.0033025194 -0.0039144726 -0.004484095 -0.0020854832 -0.0050591137 0.0028185467 -0.004745132 0.0031176563 -0.0016297132 0.0020814384 -0.0005379853 -0.0024250983 0.000739997 0.0055870363 -0.0017814134 0.0019312971 -0.0029141328 0.0009247086 -0.00132356
hello -0.0049935835 -0.00011436566 0.0011219612 0.0006011175 0.00043060476 -0.004714217 0.0053639472 0.004888458 0.008235772 0.0019779205 -0.003981977 -0.0052354746 -0.010081494 0.00990573 0.0044529717 -0.0027044886 -0.0049123894 0.006594542 2.3464609e-05 0.0060127387 0.0068512657 0.0021877396 0.003342758 -0.0071175257 -0.0007268979 -0.0075496235 0.007988367 -0.0017322309 0.003843313 0.004416719 -0.00051380845 0.0025027853 -0.0041412557 0.008885234 0.006160369 0.0025516856 -0.00076362345 -0.0030001553 0.0021411015 0.004322901 0.0027784035 -0.007077927 -0.0041806675 -0.007230299 -0.0007153211 -0.003474079 0.0027343875 -0.0034667654 -0.0016461292 -0.0015722114 -0.003627577 -0.0033116727 -0.0029636787 -0.0024060092 0.007232196 -0.00056777254 0.00793379 0.0075327856 0.0011890964 0.0045948895 -0.00825065 -0.0037355213 0.002821191 -0.0013588837 -0.005560143 -0.0020488312 -0.008681555 0.00748898 -0.007861494 -0.0054596565 0.0089611625 0.003304198 0.0013133831 -0.009199446 0.0048617837 0.0014792806 0.0033887797 -0.009831134 -0.0026365754 0.006516957 0.0026736003 0.004684645 0.0068660406 0.0023352627 -0.007027635 -0.0012623586 0.004471255 -0.00540216 0.0061690114 -0.0037555355 0.0040335436 -0.0053229714 -0.0007929029 0.008533696 0.00879455 -0.0020004 0.008513087 0.00063341 -0.004791573 -0.0020775576
eta -0.0008598559 -0.0047489223 -0.004345611 0.0032850069 -0.005189225 -0.0017666975 -0.004686722 0.0010285926 0.0057004048 -0.0050072507 7.5615906e-05 0.0035860816 -0.0047718715 0.0012028115 0.0009599573 0.00061409693 0.0011614417 0.0032567491 0.0035781797 -0.0018312047 -0.0044968906 0.003689499 0.0015648303 -0.0042015617 -0.0038874212 -0.0035352209 -0.00032239442 -0.0015670478 0.004507888 -0.003429501 0.0012221431 -0.0049481476 -0.0020097373 0.0043846313 0.0011671733 -0.0030276566 0.0018351827 0.0018345568 0.0031432202 0.005208638 0.00054836133 0.0017547588 -0.0025364798 -0.0025876143 0.0043929406 -0.0031157173 0.0054422044 0.004365041 0.003548604 -0.0005298539 0.0012917776 -0.00469711 0.0011032717 0.0023002687 0.004951805 0.0044810153 -0.0038217662 -0.0028376472 -0.0037565134 -0.0011018058 -0.0017226626 0.00049898925 0.0020376586 -0.0027800177 -0.0003073175 -0.00066924427 -0.0054322663 0.0028728268 0.003024107 0.002616155 0.0025562556 0.0033174076 -0.0033801938 0.0007819657 -0.0037130744 0.0024830522 -2.5454274e-05 -0.003657931 0.0023101557 -0.0029404669 -0.004032447 0.0027204757 0.0018469975 -0.0026685342 -0.004241901 -0.00039074218 -0.0019899837 0.00022089764 0.0049465443 -0.0043609627 -0.0055388897 0.0043035476 0.003140934 0.00387334 0.0040974645 -0.0033947497 0.002850136 -0.0035610364 -0.0014469274 0.00063721364
message -0.0013098852 -0.0017666629 -0.001733397 0.0028118566 -0.0010970659 0.0041146725 -0.0037939178 0.0021501933 0.0010402234 0.0066607315 0.0013514853 -0.0021166475 -0.0047621466 0.0035131192 0.0034604718 -0.00497154 -0.004597298 0.004005359 -0.0022672433 -0.0023170386 0.0053690285 -0.0040387935 -0.005118035 -0.0021327464 -0.0048055183 -0.0039402074 0.00479435 -0.0032539289 0.003928881 -0.0014408933 -0.0021333548 -0.0025758944 0.00091851613 -0.007067326 -0.0015114064 -0.0027087019 0.0030960622 -0.0009912988 0.0036997744 0.0024527677 -0.0067536556 0.0033914794 -0.0016289265 -0.0022864938 -0.0034266377 -0.0037255993 0.004483245 -0.0002224193 -0.003282329 -8.9708126e-05 -0.003044271 0.0009032885 0.0011459306 0.00028765656 -0.0014636371 0.0033018286 -0.0038373505 -0.0023940608 -0.0012465339 -0.0043424447 -0.00060300884 0.0032040507 0.0016797273 -0.0028304663 -0.0031463508 0.0022821745 0.0011817405 0.0014437606 -0.003977168 -0.0024921796 -0.0053840564 0.0018265815 -0.0030261243 0.0032795945 0.0030723247 -0.004709063 -0.00258188 0.0004175085 0.0018616782 0.0044234553 -0.0017544606 -0.001167243 0.0054145 0.0032506196 -0.0053310473 0.0040636337 -0.0010114969 0.0052594156 0.00410347 -0.00072243356 0.004652757 0.0017900786 -0.0048783035 0.0019965183 -0.0041670306 -0.0014070707 0.0008712246 0.0011462024 0.0017322719 0.0045863222
deleted -0.0027877418 -0.002353975 -0.0037609413 -0.0021936672 -0.0047358987 0.0014668211 0.00432925 0.004918304 0.00096444355 0.004728964 -0.00041778947 -0.002643071 0.0046955682 -0.003708781 -0.0039007664 0.0041713924 0.0011407585 -0.0040036268 0.0016578895 -0.0035351391 0.0044894502 0.0047273496 0.00094064884 0.0031534084 0.002392226 0.0032387916 0.0032758114 0.002644359 -2.8326396e-05 -0.0014151545 0.0013114267 -0.0043001496 0.0029032645 -0.0032666526 -0.0012772647 0.0021072293 0.0012016685 0.004400476 0.0060848976 -0.0011267683 -0.0056305667 0.0020105464 -0.002302894 0.00034063312 -0.0035613603 0.005819659 0.0053547416 -9.389314e-06 0.0013720947 0.00020467202 0.0038513276 0.002148348 -0.0026819024 0.0007007417 -0.0047020516 0.004510946 -0.0011858675 0.0027941891 0.0038379098 -0.0016268176 -0.0033408753 0.0012364163 0.005152856 -8.895819e-05 -0.0018955957 -0.005423469 -0.0030013141 0.0049265153 0.0035614227 -0.003401172 -0.003970587 0.004298651 0.0038202913 -0.0021453893 -0.0034805988 0.0029922617 -0.002797947 -0.0016288433 -0.00092029263 -0.0008986155 0.004754676 0.0025584348 0.0060431343 -0.00072189426 -0.00021851856 -0.0035316327 0.00070426293 0.0029618493 0.003084511 -0.0018855764 0.004854871 0.005035003 -0.0024958048 0.0007197103 0.0008957862 -0.001953841 0.006347816 -0.000951015 -0.005939536 0.0026552784
diea 9.670451e-05 -0.0005421962 0.0015268832 -0.0024825344 -0.00082544214 -0.005572002 -0.0017145372 0.0021626698 0.0050468678 0.00053211366 0.0047018016 -0.0033709568 -0.003387002 -0.0026309192 0.00023857062 0.0024374311 -0.0022470346 0.0015717681 -7.555251e-05 -0.00085710676 -0.0029470897 0.0021591552 0.0048388205 0.0018861846 0.002348734 -0.0041079917 -0.003983299 -0.00018255849 -0.0040346803 0.0012354164 0.0026917318 -0.00063471805 -0.002882457 -0.0042161485 0.0035401485 -0.005353781 -0.00030652777 -0.004719018 -0.0026857485 0.001718868 0.0015672434 0.0036603143 0.00090541027 -0.0031696586 0.003957904 0.00026325264 0.004386588 0.0027033105 -0.00010917475 -0.0006085415 -0.0017394135 0.0028994516 -0.0027344164 -0.0035741623 0.0027993862 0.0001389283 -0.003017025 -0.0021553037 0.0024196627 0.0054250406 -0.0025635478 -0.0013619525 0.0035675108 0.0031067154 0.00485899 0.0011104571 0.00022374814 0.0019173966 0.0058649927 -0.004790318 0.0047958647 -0.0005138201 0.0011483732 0.0024396789 0.00028264677 -0.0057664737 -0.0031789439 -0.003985575 -0.0010623016 0.00076473877 -0.0018489956 0.0042636665 -0.0022963432 0.0029169936 -0.002583104 -0.002152541 0.0015422578 0.004245167 -0.003669984 -0.0010570514 -0.005725573 -0.00052705605 -0.0047433 0.0052937265 -0.0003978301 0.0006901259 -0.0030868961 -0.0029810853 0.00054057606 -0.0028761204
tey -0.0048923763 0.0006182225 0.0025936684 -0.0013960069 0.0026232998 -0.0060359454 0.0018460959 -0.004589264 -0.0028409867 -0.002849097 -0.0017831575 0.0013136688 -0.0005396974 0.0010223674 -0.0027551223 -0.0016417248 0.00047656227 -0.004346235 0.002970481 0.0011925785 0.002243669 -0.0059952247 0.00080250815 -0.0002677585 0.003006041 0.0046918797 0.004550179 -0.0036207642 -0.001306868 0.004543115 0.0048088464 -0.004864213 0.0036733393 0.0005665061 0.0034451715 -0.0034581325 -0.0033199985 -0.0045766355 -0.004738243 0.0039228895 0.004725836 0.0036036235 -0.0029698613 -0.0032672607 0.002350243 -0.0016094076 -0.0036988084 -0.004207535 -0.003979822 -0.00024377537 0.0017754695 0.00073798466 0.0035548757 -0.0025894572 0.00030879845 0.0046534818 0.0012950726 -0.0022088992 0.0018063531 -0.0020734211 -0.003692145 0.00031559754 0.0039995224 0.00091639254 0.0048828684 -0.0021421602 0.00030730275 0.004285537 0.0037651157 -0.00072231726 -0.00029640496 0.0045490246 0.0042963726 0.0017709156 0.00050978793 -0.0012056907 -0.0006677455 -0.0057574543 0.0017803744 0.0047118627 -0.0012544548 0.003485917 0.0045702476 4.538699e-05 0.0002139107 0.0031476677 0.0023070802 -0.003314916 -0.0030624617 -0.004412854 0.0022911928 0.00012452759 -0.0032418512 -3.200311e-05 -0.001309764 0.0032976682 0.0039826552 -0.00023232464 -0.0014121436 -0.0025586265
ekhon -0.0015880855 0.0010113436 -0.0038020134 0.0038648122 -0.0021301545 -0.00058220286 0.002867975 -0.00016895082 0.005232158 0.0011229899 -0.00011338606 -0.001421099 0.003996485 -0.0001219239 0.0041869376 -0.0021026493 -0.0010417099 -0.00019435634 0.0041407985 -0.0026648613 0.002693215 0.0010005328 -0.004069957 -0.005804648 0.0032368503 -0.00048935815 0.0026762958 -0.0028851866 0.002638037 -0.0010666815 0.001275172 -0.0009716695 -0.0043791537 -0.001578829 -0.004674992 0.0012824505 -0.0015061767 0.0004994502 -0.0019629092 0.00068549375 -0.0008952677 0.0048481678 -0.0014284052 0.001443717 -0.003875515 -0.0003903713 -0.004458073 0.0018795565 0.0053086984 0.003938767 0.0023687768 -0.0054608136 -0.0004987524 0.00016454574 0.0054818885 -0.0019160585 0.002285138 0.0004720343 -0.0031784752 -0.0018356891 -1.0863238e-05 0.0014007842 0.000658753 -0.00020384452 0.0012648 0.0012161325 -0.005435079 -0.0035609654 -0.0030413484 0.0045130784 -0.0039758133 0.0033607904 0.00110275 -0.0026121913 -0.0006015424 0.0029412534 0.0043454627 0.0019548791 -0.00040238546 -0.0014057645 -0.0002994113 -0.0019477314 0.0037522072 0.0007001492 0.0015745687 -6.153773e-05 0.0026809084 -0.0026625418 0.002817111 -0.0053957063 0.0029168623 -0.0023860096 0.00063590065 0.005402686 0.0015083875 0.00056168716 0.0040927106 0.00428017 0.0029587133 -0.0040331613
korte 0.002590082 0.0004673639 0.0031104032 -0.0013784971 0.0019536589 -0.0038610862 0.0022446646 -0.004362615 0.0033329797 0.0032907396 -0.0005667447 0.0008591604 0.0029933383 -0.0022455542 -0.0032514175 0.0037924196 -0.0008329041 0.0032013278 -0.0054411395 -0.0034999072 0.0044070557 0.0030471801 -0.0018937225 -0.0048975116 -0.0032633403 0.004600098 -0.0015392315 -0.004125831 -0.002613833 0.00095782435 0.005850753 0.0037348494 -0.005524317 -0.003213822 0.002650023 -0.0006694428 -0.0034348408 0.00031815947 0.0026894372 0.0004911143 -0.004978606 -0.0023895039 0.003634153 -0.0017574235 0.004869005 0.0023019665 0.005562203 -0.0015779516 0.0019336782 -0.0039956197 0.0001770463 0.004267407 0.0014600017 0.0010320127 -0.0023969912 0.00038029926 -0.0040579946 -0.0021111814 -0.0023621859 -0.0016520601 -0.0042666816 0.006590423 0.0044522067 -0.0024935456 0.0010302704 0.0023703573 -0.0056428057 -0.0007932955 -0.0036710626 0.0037742557 -0.0027287947 0.0054242583 0.0034347854 -0.0030635013 -0.0005897213 0.0030367097 -0.0023564384 0.0009978588 -0.0011224787 0.004183945 -0.0042199846 -0.0016353786 -0.00059997465 0.0014813893 -0.003435039 -0.0003708432 0.0045865253 -0.0011163305 0.003304678 0.0019977593 0.00045511898 -0.0015570488 0.0009211266 0.001917355 -0.0020615943 0.0005624685 0.0017839397 0.0041877525 -0.0038639847 -0.000991012
acche -0.0005439645 -0.004857107 -0.0010643802 0.002869299 -0.002391452 -0.0010899409 0.0005146522 -0.004127852 0.0057262722 -0.0003303866 0.001731234 0.0010972079 0.0037127917 0.0015746986 -0.0013960015 0.0010398503 0.004784188 -0.00038153876 -0.0028010665 0.0038552603 -0.0013223183 -0.0048534507 0.0035941582 -0.0051620714 0.004152178 -0.0007402806 -0.0031700076 0.000119204284 -0.0019294082 0.0012940607 0.005239577 0.0038306026 -0.005815137 -0.0044128816 8.237862e-05 -0.0015818524 0.0013686761 0.00171765 -0.0035639254 -0.0037018915 0.0036219573 0.0005563494 0.0048144865 -0.004476066 -0.0031885228 -0.0024357596 0.005035998 0.0015523322 -0.0039927596 -0.004651912 0.00012867796 -0.00018322037 0.002739357 0.0006585801 0.0012121589 -0.004474964 0.0017212916 -0.0030309618 0.0039552795 -0.0011351004 0.0005383907 -0.0012060814 0.0022248705 -0.004716084 -0.0017716615 -0.0037711572 0.002452027 -0.004328216 -0.003247607 -0.0025841028 -0.001933418 0.0012156267 -0.00492215 0.00061494217 -0.0019860517 0.004260305 0.00039325038 0.0023161212 -0.0030723314 -0.0018803658 -0.00313513 -0.0016183503 0.0006422692 0.0040614447 0.0022046375 -0.0056415107 -0.0011349609 -0.0050673326 -0.00063189847 -0.0030734322 -0.003825202 0.00037057602 0.0042668227 -0.0044160956 0.0029950636 -0.002265492 -0.0012632186 0.0050450964 -0.0046275486 -0.003387732
nei -0.0050738594 0.0011716288 -0.001751012 -0.0038158274 -0.0031531118 -0.004514773 -0.003689766 -0.0017942197 -0.00053424854 0.0006364756 0.0016295778 -0.0023294387 -1.7057704e-05 0.0059966347 0.0023458905 0.005862095 -0.00011485673 0.0037900887 0.0018020304 -0.0052441712 0.0038856429 0.0009296861 -0.0031252832 0.0035371576 -0.0016098939 0.004286267 -0.004109432 -0.0006635568 -0.001725759 -0.0028333343 -0.002393208 -6.037816e-05 0.0006288079 0.0005188533 0.004766834 -0.005458993 -0.004923331 0.0027123464 -0.0024296779 -0.0020838662 0.002900912 -0.00026178375 -0.0030466393 -0.00026739074 -0.0009056884 -0.0034336976 0.00199711 0.0030127158 0.0030068643 0.0011960232 0.0041886754 0.002183315 -0.0018309521 -0.00082714355 0.0011864178 -0.0044804895 -0.001876253 0.0036649955 -0.0032671387 0.0038407547 0.0047161025 0.0035667222 -0.0005030226 0.002043102 -0.0027638106 0.0028529728 -0.0006750824 -0.0013637745 -0.0036480164 0.004602174 -0.0041577555 -0.001004611 -0.00021029921 0.002956505 0.0043713003 0.0014264655 -0.0011979005 0.0011906582 -0.0047369166 -0.0030929786 -0.003432811 -0.00075730786 0.0017068785 -0.0023727387 -0.0021283934 -0.004071626 -0.0027727743 0.0018274004 -0.0034801494 -0.0021495188 -0.0017456015 -5.9778762e-05 -0.0018714954 0.0054471525 0.0059583713 0.003155191 -0.0024631089 -0.0018926595 0.0028049012 0.0018418697
tor -0.0025410042 -0.0030612876 -0.004255569 0.0044011073 0.0013501782 -0.005483329 0.0017441466 -0.0012349782 -0.0015929263 0.0038706777 0.00028224866 -0.0014125289 0.0011692381 0.0030322531 0.0021330337 0.00539504 0.004475924 0.0017264668 -0.004763359 0.0035224848 0.0042595943 -0.0045210263 0.0030602706 -0.005521767 -0.0018886578 0.0017584669 -0.0037469217 -0.003722249 -0.0030980064 -0.0024057631 0.0006840776 0.0018048817 -0.00061857316 -0.0030940548 0.0033458069 0.0020489702 -0.00262069 -0.001290889 -0.0037860186 0.00491641 -0.0014584317 -0.0009855912 0.0050677485 -0.00054356846 0.0048998157 0.004640786 0.0053687813 0.0012070807 -0.0013557567 0.003776141 -0.0017652382 -0.005327171 0.0012570815 0.0039511886 0.005004733 -0.0020922013 0.0021244015 0.002721445 -0.0015705713 0.002670961 -0.0033361483 0.0020966954 -0.0022863897 0.001408399 0.0004400373 0.0015209941 0.003974253 0.0013597257 0.0017818926 0.0044752588 0.0031969852 -0.0020936301 -0.0027646304 0.0027226575 0.0030944117 -0.0054232134 -0.0012960039 -0.0045129927 0.0013130805 0.003150672 -0.00035233956 -0.0030781534 0.0026561604 -0.005027698 -0.00027411396 -0.005046961 -0.00011837993 -0.003038547 -0.00070179265 0.0006135859 0.001084583 -0.00060779724 0.0033378818 0.0037768965 0.0049287514 0.0023103578 0.0009198994 0.0036852807 0.004659614 0.0009823492
ei -0.0060160835 0.0006846195 -0.0015994869 0.0019562268 0.0011861286 0.0020972916 0.0027816938 -0.0006895437 -0.0030012105 0.0012130907 0.005400494 0.0046185153 -0.0015989677 -0.002560868 0.0037910773 -0.0034066294 0.00036572388 0.0040989197 -0.0052931365 -0.0015375804 1.4767551e-05 -0.0026636797 -0.0034209648 0.0005007855 0.0040290873 -0.0015342446 0.0015848674 0.0027491956 -0.0015937027 -0.0016196062 0.00012513655 0.0010127233 0.003746502 0.004204583 0.0044306954 -0.0004888027 -0.0007134365 -0.002503074 -0.005050195 -0.004203361 -0.001176472 -0.0007257272 -0.0013618618 -0.0012705904 -0.0033909492 -0.004277908 0.0046713273 -0.0036901343 0.0042547286 0.0014977775 0.0009485839 -0.0049561905 0.0032798029 -0.0024253407 0.0023845006 -0.004901622 -0.00032016798 -0.0025330097 0.0039897696 0.004443526 0.0012136424 0.006159503 0.0009858011 0.0036297427 0.0028054155 -0.0020495804 0.0015821512 -0.00053531496 0.0033929392 -0.0032880788 -0.0035414854 -0.0041583986 0.002922943 0.001064087 0.0056541357 -0.0025342063 0.0031526894 -0.0005510415 -0.0021987516 -7.805606e-06 0.002453975 0.002701914 -0.0028758117 0.0047984854 0.0031983703 -0.0055231145 0.0016384681 0.0015971663 0.0030846633 -0.003836434 -0.0050438773 0.0017884024 -0.0012597328 -0.0017550255 0.003361241 0.0029456995 -0.0024678677 0.0012902544 -0.0015837959 0.0029842984
bhalo -0.0010345636 -0.0011758021 0.00091649074 0.0016206014 0.0015720703 0.0009657288 0.004106424 0.0020448216 0.0052318852 0.00053950725 -0.00066488964 -0.001617504 -0.0026036734 0.0021582735 -0.0023363053 0.0053641796 0.005282061 0.0029556463 0.0037552763 -0.0005899343 -0.004444777 0.00072917313 0.0012070336 0.003997326 0.003912847 0.00038711992 0.005256295 -0.0022263092 -0.004528546 0.004285131 0.0009686354 -0.0011935484 -0.0051259384 -0.0033512437 0.0025539785 -0.00039761374 -0.003464964 -0.0025451365 -0.0047233147 0.0057117557 -0.002606465 -0.0023220566 0.002285313 0.005094031 0.0028227833 -0.004339384 0.0034569355 -0.002453183 -0.0027479331 0.0015412642 -0.0031294515 -0.0007084882 0.0011890343 0.0037989218 -0.0013011293 0.0020610734 -0.002398541 -0.0008532983 0.0033695376 -0.0022428492 0.0023555153 0.0042551546 0.0039982446 0.0011810901 -0.0012660334 0.0008168893 0.0022501713 0.0013711004 0.0022334673 0.0010558597 0.0009244918 0.0026933495 0.0014411041 -0.0046640416 -0.003663799 0.00013207493 0.0018203945 0.00074045005 0.0020123946 -1.5823416e-05 0.0006407455 0.0029706708 -0.0037010126 -0.004434589 -0.0010776722 -0.0012484698 -0.0037683279 -0.0051022726 0.0038496244 -0.0026651402 -0.004225111 -0.0012104359 0.00248776 -0.002902191 0.0008906523 -0.0008065034 0.0047984803 -0.0025262441 -0.004458866 0.0006064653
please -0.0041625523 -0.0037431736 0.0047990507 0.0014123392 0.0011257188 -0.003565883 0.000798964 0.0032458499 -0.003074019 -0.0007977505 -0.00032224925 0.005176712 -0.0026457321 -0.005022489 -0.0012727897 0.0033989216 0.0038588673 -0.004785876 -0.0028493544 0.0016878387 -0.001324287 -0.00025169188 -0.0052252105 -0.0002774016 -0.002161466 0.0016484294 -0.0005092535 -0.0025248285 0.0044223587 -0.0026596813 0.0018037007 -0.0025597094 0.0025905382 0.0013087307 0.0018552208 0.0010561844 -0.0009110767 0.0032206431 -0.00073266437 0.001383452 -0.0024117772 -0.0032249189 -0.00016655053 0.005113289 0.0019155425 0.0017102826 -0.0021087714 -0.0004996943 -0.0030115403 -0.0009423563 0.0023659037 -0.004093878 0.0031252308 -0.003613461 -0.004385426 0.002549414 0.0047733495 0.0037003234 -0.0023856068 -0.0041543813 -0.00220111 0.0026230332 -0.0007580041 0.0012510816 -0.0024237337 0.0011725189 -0.004322026 -8.041509e-05 0.0020444216 0.0018289892 0.0015971125 0.005518512 0.0034617186 0.002716566 -0.004456559 0.00031541512 0.001759852 -0.001283997 -0.0036246898 -0.0033062412 0.0049576038 -8.726673e-05 -0.00532565 0.0019673326 -0.0043206923 -0.0025697143 0.00069696375 -0.00091663824 0.0045954133 0.0032379518 0.0042784014 -0.0049853637 -0.00051181065 0.0010647714 -0.0028804028 -0.0012695065 0.0006294484 -0.0010626195 0.00035927375 -0.002632996
hya -0.004492787 0.002415763 -0.0028608465 0.0014540411 0.00429459 -0.0033792388 0.0049288035 0.00245809 -0.0031910269 0.0027990616 0.005328671 -0.0044345935 -0.0018023707 -0.0013611659 0.0034808333 -0.0008458025 0.0019360152 0.0038359463 0.0035355224 -0.0045281677 -0.0020646066 -0.0028271652 0.0035530494 0.0037999512 -0.0003289235 0.0046489933 0.0035838052 -0.0034565504 -0.0015502935 0.000570129 -0.0011741921 -0.0040197903 0.000102287406 0.0009468633 0.0022551152 0.0037764425 3.5326226e-05 0.003068137 -0.004195233 0.002145227 0.0049267253 -0.0032734221 -3.692082e-05 -0.0013393614 0.0034557856 0.0007440351 0.0012717696 0.003993575 -0.00079191825 -0.0004165337 -0.0020041605 -0.0028916728 0.001799963 0.0006558916 0.0038665424 -0.0006270915 -0.0020201711 -0.0006715854 0.0017419058 0.0029778073 0.00013122341 0.0030722031 0.0046293726 0.0047700442 -0.0018563233 -0.002397575 -0.00033616569 -0.0009201818 0.0020367948 -0.004736999 -0.0025403805 -0.0011890028 -0.0047325604 0.0016663333 -0.0008349985 -0.002797547 0.0032803323 -0.004774551 0.0026826495 0.0043851067 0.0041701486 0.0038126626 -0.0032049594 0.0025678023 0.00060200423 -0.004912629 0.0011889151 0.0015303578 0.004763747 -0.00073983497 7.860716e-05 -0.000114370225 0.0019852682 -0.00062515656 0.0025149598 -0.0010315106 -0.0039347466 0.002839323 0.0024258571 -0.004123817
is -0.0030766309 -0.0022774043 -0.0015213606 0.0040244022 0.0005286364 0.0017474047 0.00069881364 0.001890091 0.00039996102 0.002355047 0.002927796 -0.004213606 -0.0014762555 0.0017472672 0.0018894671 -0.003967702 0.002950383 0.0032840273 -0.0034088388 -0.005435639 0.0038954904 0.004022849 0.004869148 0.0026377975 0.0024245628 -0.0027423988 -0.00078154757 0.0016763043 -0.0031215858 0.0029817992 0.0045050187 -0.002163493 0.0035373976 -0.0031648593 -0.0045976546 -0.0022245871 -0.0011271869 0.00069774897 -0.0026681717 0.0038191536 0.0014243566 -0.0019327842 0.0042731925 -0.0022426348 -0.0017238453 0.0039929785 -0.0008742179 0.0049628327 0.0054243393 -0.0015309895 -0.0052111037 -0.0010614727 -0.001167619 -0.0006374278 0.002357369 -0.0034648378 -0.0012491937 0.0024102337 -0.004346818 0.001640225 0.004441379 0.00073273847 0.0006122267 0.00060732936 -0.0018266424 0.0010792705 -0.00208467 0.00019288997 -0.0027229574 -0.0010285835 0.0005980469 0.004800653 -0.00028025373 -0.0023662478 0.005557696 -0.005839252 -0.0015514469 -0.0009413659 -0.0016811149 0.0023833946 0.0035685361 0.0009708367 -0.0049386276 0.0004175296 -0.0020487162 0.00034356056 -0.004394184 -0.0012745255 -0.00071374944 -0.005757807 -0.002225295 -0.003657244 -0.00034253404 -0.0012178635 0.005250668 0.0024932402 0.002190858 0.005500152 0.0014452528 -0.0033878952
hoye -0.0064092847 -0.002644808 0.0040065446 -0.0020587172 -0.0039979345 0.0020430107 -0.00010675082 0.004540922 0.00058490766 0.0011484578 -0.0014069678 -8.790155e-05 -0.0030117303 0.001225706 0.00068020826 0.005496759 -0.003374741 0.00021622017 -0.005173294 0.0035441213 0.001808459 -0.003820778 0.0019046919 -0.0050638593 0.0012446586 0.00011168057 -0.0036236339 0.0026162546 -0.0050666532 0.0033940847 -0.00042293518 -0.0018491728 -0.0011748474 0.0032090878 0.004452584 0.0036170164 -0.0022403162 -0.0022156006 0.0013357756 0.0013620027 0.00017040702 0.0046969075 -0.00418876 0.0027400872 0.0023547874 0.0025689565 0.0013765374 -0.0006382789 -0.0034553304 -0.002686556 -0.0029384475 0.0015543187 -0.0029777647 -0.0020257565 0.00429334 -0.0029881636 -0.00042282767 -0.0041430467 -0.0018901445 0.0016236593 -0.0045700907 -0.0012954163 -0.004443741 0.0050061047 0.0018224876 -0.00024725375 0.0005309741 0.0008550901 0.002231831 0.0033024389 0.0019023487 0.0004892245 0.0028055285 -5.363205e-05 -0.0022984068 -0.0025555808 -0.0039090584 -2.6828937e-05 -0.00034056805 0.0022531098 -0.0011586047 -0.004097345 -0.0007465729 -0.005090554 0.0031851751 0.0035371438 -0.003755802 0.0038184163 0.00089232496 -0.0037642594 -0.003283973 -0.0029252062 0.00032102325 -0.00038408407 -0.0010620394 0.0017352214 -0.0039868844 0.0054709297 0.0004973318 -0.00373747
kichu -0.00319005 0.0043191207 0.0002467893 -0.005074183 -0.0047748187 -0.0021295282 -0.00052057713 -0.004118397 0.0025708696 -0.0027809013 0.002910684 0.0026834328 -0.004857572 0.00035381323 -0.0025428126 0.0014503346 -0.004099853 -0.00017759988 -0.0033053681 -0.0011237994 0.0028503616 0.00059636193 0.000310105 0.0030544866 0.0016556014 0.0046903957 0.0015185757 -0.00018960361 -0.0033953406 -0.0045044837 0.0014338723 -0.0005236319 0.00029804866 -0.00086342456 -0.0027704637 0.002224422 -0.0014960149 -0.004782172 0.0032906395 0.0050449576 0.0038326741 0.0042680865 -0.0020465343 0.0018891746 0.003282879 0.003252111 0.0043586576 -0.004024507 -0.0008594068 0.00026322552 -0.0006596301 0.0045289737 0.002419186 0.005098471 -0.00022432693 0.00020915235 -0.0019207724 -0.00012164564 -0.0032496785 -0.0009563399 0.0029847035 0.0040572975 0.004769808 0.004753391 0.003148538 -0.0047516287 -0.0056444234 -0.00233588 0.00051383773 0.004051803 0.0031067515 -0.0030402122 -0.0003749425 0.0024425332 0.0041793655 -0.0029212537 -0.004030284 0.00046425534 -0.0024954637 0.0018862593 0.0017268609 0.0038329298 0.00029277368 0.002360642 0.002114341 -0.0023177688 0.003391469 -0.0053005894 0.002108466 0.0014133175 -0.0001819656 -0.000748207 0.0042930716 3.0603263e-05 0.005352427 0.00021385355 0.0025727784 -0.004181736 0.0017953842 0.0034310052
mone -0.0027573463 0.0018603174 -0.0031170773 -0.0035594394 0.001983526 0.0031163 0.0022624768 -0.00031199324 0.0011886867 -0.0054041087 -0.0024153965 0.0036169458 0.003235766 0.004731456 0.00380536 0.002953589 0.0021961515 -0.002629106 0.0040403213 -0.0024337547 0.005343581 0.0040354105 0.0021340332 0.0006682845 0.0019549576 -0.0030837555 0.0005926163 -0.0019946739 -0.0043448876 -0.0020572538 -0.0017454651 -0.005362239 7.347183e-05 -0.005188275 0.004487962 -0.002972611 -0.005192544 0.0032230509 -0.00096005976 0.0013043315 0.0013892866 -0.0043896567 -0.002387013 -0.002068207 -0.0030503816 -0.003727524 0.0019676303 0.0006247339 0.000622952 -0.00063172076 0.000655053 0.0030649598 0.004206482 -0.0038326525 -0.0020097012 0.002410332 -0.0023292867 0.0021355418 -0.0028779472 0.002811048 -0.0034104032 0.0041908044 -0.0026468032 0.0053531937 0.004051382 -0.0046526245 0.00025756416 -0.0051792488 0.00044119637 0.0016086457 -0.00011537756 -0.0031433797 0.0026982718 0.0049075233 0.005364246 -0.0011997626 0.0028682074 -0.00062639563 -0.004581213 0.00058523077 -0.0026568985 -0.0026189669 0.0017875684 0.0038379405 -0.00078102405 0.001056752 0.0037091828 -0.00032390116 0.0005708692 0.0005337111 0.0011973337 -0.0019731775 -0.0027947652 0.0011634514 -0.00033305827 0.0010774932 -0.004063854 0.0007180417 -0.004800318 0.0030659821
nah -0.005422933 -0.0023529024 0.005339221 -0.0029140366 -0.0048618675 -0.0049666376 0.004574607 -0.0031460358 0.00013949302 -0.005361769 0.002180943 -0.0036790944 -0.0007036467 0.003779452 -0.0035084896 0.0025114976 -0.002116943 -0.0023626487 0.0005820948 -0.004477319 0.0033887594 -0.00409136 0.002889939 -0.00040013107 -0.00091764843 0.004558628 -0.002465973 0.0014794943 0.0019262723 -0.0038210442 0.0055591897 -0.0019865378 -0.004223288 -0.00049304386 0.0021001822 -0.0027516088 -0.0015774874 -0.0022840658 0.0023166214 0.00091209915 -9.415114e-05 -0.004131894 0.0027389869 0.0034285898 -0.0036929622 0.0029723437 0.00092258607 0.004539637 0.0022160106 0.0038940504 0.0027350907 0.00024851417 0.00065092684 0.0007788847 -0.0032931177 -0.0002518863 0.0044174753 -0.0019675507 0.002825349 0.0042307675 0.0006835418 0.005422938 0.0005296243 0.001813088 0.00074589194 -0.002759445 0.00030450718 -0.002648815 -7.8570025e-05 -0.00077966135 0.001423317 0.0024088048 -0.0027991245 0.0040993784 0.0006610909 0.0003973784 -0.0024151856 0.0030420145 -0.0055491193 -0.0031246457 0.0022388648 -0.00052111247 -0.0036708154 -0.0005160779 0.0001973019 0.0027005859 -0.0012986783 -0.0057077752 -0.0022640736 -0.00052480836 -0.00475612 -0.004480412 0.0035094626 -0.0036170492 0.005622034 -0.0014196084 -0.0024871596 0.0041306857 -0.0012897312 -0.004135854
naki 0.0030123258 -0.004845615 0.0015233634 -0.00033090668 -0.0035235477 0.0033782418 -0.0019485675 0.0039178506 0.0008163017 0.0010193991 0.0016000017 -0.0022643185 0.0030056643 0.005476016 0.0015506885 4.5074616e-05 -0.004626735 -0.0018879941 -0.0045324676 -0.0021107176 0.0051726648 0.0010782146 -0.001924045 0.0033476555 0.00081890577 0.003932618 0.004557691 0.0022463808 -0.00086662214 0.0047459668 0.0009745656 -0.0016748608 -0.005254683 0.00022742494 0.003964273 0.0047651753 -0.002014179 -0.0035495714 -0.0011732011 -6.3875355e-05 0.0045965915 -0.0006606265 -0.0020575153 -0.0025626034 0.0025560544 -0.0010692034 0.0031332653 -0.0031378132 0.0034589793 -0.0034233343 -0.004401832 0.0005809584 -0.0014731867 0.0041842624 -0.0022397712 0.0018751393 0.00021729739 -0.004850588 0.004115036 -0.0032241673 -0.002574671 0.00266002 0.00079086423 -0.0016619111 0.0013105641 0.0017319223 -0.00509898 0.002740586 0.00398694 -5.34611e-05 -0.0035883004 -0.0030026096 -0.0044757794 -0.0037865185 -0.0012668817 0.0006309878 -0.002926258 0.0038272077 -0.0001538006 0.003666267 -0.0011875613 -0.001841574 -0.0028583724 -0.0024925242 -0.0022448422 -0.0041044517 -0.0020696952 -0.0028754512 0.004009813 -0.004489212 -0.0012742206 0.0039981767 -0.0040671877 0.001372154 -0.0034636017 -0.0024472952 -0.002536174 0.0014582062 0.004374957 -0.004462547
in -0.0051494096 -0.0049138227 0.0046490934 -0.005412856 -0.0051415972 0.003548747 0.004880008 -0.003492414 0.0043647788 -0.0023484274 -0.0019861525 -0.0020385326 0.0039277263 0.0018888838 -0.0018825013 -0.00071632105 0.0045239106 0.0019814956 0.002025101 -0.0022050722 -0.0025659245 -0.0033141465 0.0044241846 -0.003194157 0.001550207 -0.0026127237 -6.8586276e-05 0.0032859808 0.0021462098 -0.0025914928 0.005993796 -0.0057045748 -0.00028200768 -0.0029890412 -0.0044048224 -0.0038848782 0.0040195743 -0.0035654837 -0.0015229733 -0.0033629662 0.004002091 0.0009506168 0.0020889873 -0.0032742717 -0.0025542362 -0.0018638241 0.0019932566 0.0024325396 -0.0008242243 -0.0038924546 0.00087110756 -0.0036227435 0.0029243908 -0.001604643 -0.00015002773 0.0014320649 -0.004143487 0.0023065505 0.005048357 0.00022038764 -0.0028940565 0.002132838 0.003171532 0.0027104386 -0.0007793135 0.0042356914 0.0024446177 0.003859455 -0.0038537718 0.0023820095 4.2847416e-05 0.0043533975 0.0011988514 0.0033858195 0.0008421347 -0.005188661 0.0019992744 -0.0051883915 -0.0010660355 0.0021401325 -0.0023442032 0.0012518093 -0.0042367587 0.0015681688 0.00038346436 0.002668747 0.001797299 0.0012865255 0.0040632696 0.002165246 0.0022898733 -0.0049718632 -0.0015592565 -0.00031393132 -0.00205611 0.0007111128 -0.0026996804 0.00077619706 0.001377124 0.004258726
taka -0.0028103727 0.0029866763 -0.003598915 -0.00065657235 0.0033793524 -0.0041238796 -0.0011934522 0.0005347514 -0.0035934993 -0.0022571303 -0.00021795258 -0.0038578138 -0.00038028733 -0.0037044515 0.0017154142 0.004227573 0.000400476 -0.00063699315 -0.0017478456 0.0021212026 -3.5227506e-06 0.00079489744 -0.00028613608 -0.004167242 0.00019564552 0.0019317295 -0.0038011244 -0.0005122115 0.00092890655 0.0037265904 0.0051473444 -0.0018588641 -0.0034424039 6.954935e-05 0.004069299 0.0038305835 -0.0042752917 -0.0035866438 -0.0036450145 -0.00031244778 0.00406946 0.003395719 0.0011225835 -0.0029112482 0.0004211564 0.0025554064 -0.00019143781 0.0029443237 -0.0017497372 -0.004700206 -0.0036333739 -0.0011330316 0.0013370679 0.0033216623 -0.0023416444 0.0017979394 0.0035170026 0.0021174918 -0.0015459516 0.0026378052 0.00043175067 -0.0020799518 0.00014675553 -0.0014252149 5.070932e-05 -0.0004424827 0.00032827238 0.0030716718 0.0032095872 -0.0006090318 0.0011809184 0.0052750865 0.0049515083 -0.004594975 -0.00259449 0.0006762716 0.0018045475 -0.0024906504 0.004526226 -0.00088405865 -0.005149614 0.0010670415 0.0044882516 0.003153459 0.0021012018 -0.0040470334 0.0021372936 -5.8469468e-05 0.0047867205 0.0009958606 0.0031202869 -9.688252e-05 -0.0017743796 0.00085601484 0.0024681578 0.0038484815 -0.000109475004 0.0052853855 0.00056268636 0.0027208289
hoy -0.0040385784 0.0019959013 0.00035956217 -0.0036766666 0.0039777975 -0.0024431245 -0.004123387 0.004029082 0.0031208408 -0.000981 -0.0020284774 0.0041801874 -0.0007744581 8.6124084e-05 -0.0034876808 0.0055040363 0.0033437496 -0.0019230325 -0.003193768 0.0025200057 0.002398357 -0.002639647 -0.0046254145 -0.00547886 -0.004158377 -0.0035585149 0.0009096881 0.0008875519 -0.0033669823 -0.0030910636 0.0057758274 0.0038572527 -0.005754952 0.0039479802 -0.0014508464 -0.0030068913 0.0013151162 -0.0052115186 -0.003608581 0.0026459908 -0.0025769717 -0.002652783 0.0026583888 -0.0014267163 0.003636596 -0.00333558 0.002322808 0.0031413243 0.0053143683 -0.0016177242 -0.0043992284 0.0014430865 -0.0031717068 -0.00026212653 -0.0017522626 -0.004025965 0.002185632 -0.003525022 0.0023994418 0.005240262 -0.0026698192 0.0019003139 0.0024896916 0.0004886618 0.0050744386 0.0015390031 0.0008183695 -0.0018386906 -0.0043611964 0.004866853 0.00062250596 -0.0026715924 0.0004626348 -0.003868735 -0.0006478181 0.0025789521 0.0029900658 -0.0049021807 -0.0005549122 -0.00062453334 -0.0042740325 0.0018211809 0.0021882206 0.00036033386 -0.0032926518 0.0023956017 0.0044267275 -0.0033907073 0.0026515292 -0.0032002488 -0.002310214 -0.0033311264 -0.001951548 0.0016409487 -0.0041134367 -0.0036304214 -0.00040558763 0.004373915 0.0007151239 -0.004822269
kor -0.0023844016 0.0039071953 -0.0029463104 -0.0022469566 -0.0025032063 -0.0041389107 -0.0031424083 -0.0021177663 0.0027990935 0.0025845815 -0.0009064544 -0.0040222895 -0.003748452 -0.004236203 0.0038600222 0.0040120166 -0.0005646946 0.0014525917 0.0020667724 0.0026820088 -0.0037677763 0.0031327656 -0.0034007805 0.0010300468 -0.0047672796 -0.0034084378 -0.0035468698 -0.0009804536 -0.0037717992 -0.0012193454 0.00048902084 -0.003628941 -0.0035336856 -5.733213e-05 -0.0026181287 0.0019032644 -0.0030972266 0.0033062883 0.0017778918 0.0033887422 -0.0014474668 -0.0009997494 -0.002823609 -0.002148504 0.0012660645 0.0044446834 -0.0025702934 0.0019854412 0.004089841 -0.0038129783 -0.004081687 0.0001926719 -0.004723282 0.0027024343 0.0021240243 -0.0012150134 -0.00087214494 0.0009589369 -0.0033323723 -0.00011005078 -0.0009528337 0.0039442554 0.0008308069 0.0023549804 0.0019614345 0.00225099 -0.0034063957 -0.0010998078 0.0023695924 -0.001865051 0.0035369208 -0.004002677 -0.0011248102 -0.002345028 -0.001239894 -0.0035853346 -0.004405376 -0.0018613103 0.0021182927 -0.0027599775 0.0003040712 0.0037123184 -0.0033916421 0.0042315186 0.0016810024 -0.00018066299 0.0024342404 -0.00095701247 0.003449571 0.00012348093 -0.005439249 0.0010994893 -0.00023853926 -0.0029770504 -0.0028333175 -0.003725818 -0.0035130729 0.0038153518 -0.0024260248 -0.0039762366
jonno -0.0036464802 -0.0016558131 -0.0026221245 -0.005722978 0.0011513316 -0.003531903 -0.0020545954 0.0005415742 -0.0025532679 0.002329808 0.0046132035 -3.119497e-05 -0.0030781156 -0.0011434078 -0.0036652903 -0.0013261213 -0.0026251734 0.002622892 0.003234746 -0.0025411325 -0.0016197943 -0.0036699343 -0.0012439723 0.0023115394 0.00033825487 -0.0011110438 0.0057124593 0.0023925304 0.0033639506 0.00063113205 -0.00072567794 -0.0014336328 0.002478429 -0.0039258553 -0.003035507 0.0042825746 -0.005227565 -0.0026622831 -0.002198173 0.0052370075 0.0043281787 -0.0030700318 -0.0038406411 0.0011312568 0.0032944693 -0.0034895875 -0.0015633751 4.57643e-05 0.0007641344 0.0037926119 -0.0033003076 0.003154027 0.00030176772 -0.0013635852 -0.0033804185 -0.0034537688 0.0020815707 -0.0049546105 0.0032308633 0.0039585084 0.004504098 -0.0022117756 -0.0032319466 -0.00036103273 0.0010086913 -0.00066852465 -0.004409223 0.000302685 0.0036650589 -7.1653085e-05 0.0002364778 -0.00024154513 -0.0012670662 -0.0029964135 0.0033068403 -0.0049844263 -0.004448972 0.0015375941 -0.0031082712 -0.0017488173 -0.00058658735 -0.0017498668 0.003028521 0.0040587718 0.0014543704 0.0013706472 -0.0029808918 0.0027805648 -0.0030173014 0.0021562902 0.0035172782 0.0037411125 0.0030579877 -0.0032404547 0.00083951716 0.0020279717 0.0046881833 0.0031657415 -0.0026975218 0.002020025
gelo -0.0047060493 -0.0006431146 0.0034818524 -0.003355793 -0.003765366 0.0017025288 0.002123258 -0.00200826 0.003629871 -0.0048201485 0.0018615733 0.0025699409 0.0005176809 0.0033858058 -0.0010806654 0.0024325592 -0.0027229013 -0.0046011545 -0.0013135651 -0.0033010754 -0.0036242683 -0.0056582848 0.0050396654 -0.0003617093 0.004141358 0.0009414231 0.0022988669 0.0016030384 0.0022994035 0.0013618341 -0.00165463 0.00029645194 -0.005769375 0.003538751 -0.0032132145 0.0019216873 -0.002144852 -0.0057238354 -0.0030716218 0.0014713776 0.0009255825 0.0029735852 -0.00075302616 -0.0011506156 0.00040864202 -0.004816466 0.0012996481 0.0010552589 0.0017224059 0.0007315155 -0.0016058846 0.001537705 0.0027335254 0.005468293 -0.004730334 -0.0004049103 0.0015744781 0.004531853 0.00097244955 0.0024686437 0.0025288719 0.0024346549 -0.001137647 -0.0018847258 -0.0009492086 0.0011892442 0.0040397434 -0.0026279895 -0.00035277256 -0.004842778 -0.00409337 0.0044284994 -0.0025017983 0.0032122773 0.0037728332 -0.005112317 -0.00460618 -0.0024606914 -0.0030538563 -0.0029283029 0.0010250807 0.004130632 -0.00526925 0.0025312847 0.004117297 -0.002692526 0.0026097628 -0.0020367168 0.003469712 -0.0014780802 -0.0023032874 -0.0047413064 -5.9542395e-05 -0.0013876971 -0.00039783187 0.002704402 -0.0011435013 0.0046699005 -0.004932864 -0.0012520703
korbo -0.0025716757 -0.0038713147 0.005260074 -0.0045012236 -0.004066401 -9.088037e-05 -0.0022595308 -0.00040486618 0.0024262923 -0.0050477167 0.0058958908 0.0047910055 0.00066607236 0.0044816765 -0.0011021665 -0.0044489275 0.00030187616 -0.003100268 0.00411138 -0.0045633866 0.004894677 0.002520478 0.0030599767 -0.003779827 0.0044387956 0.0027401194 0.0028225787 0.0005252026 0.001936997 -0.0020133692 0.0031159553 0.0018925051 0.0016442637 0.00012570627 -0.00019998995 0.0032317226 0.004046376 0.0038181713 0.0032543433 -0.0027492952 0.0017423806 -0.0016838999 0.003924728 0.0010403276 -0.00032216826 0.002405495 0.002302655 0.0050044633 0.0015437002 0.0013024901 0.0008825829 0.0014033832 6.508466e-05 0.0023050278 0.0009092986 -0.0026654927 0.0005400227 -0.0010485117 -0.0046532396 0.0023681272 -0.0029022624 0.0024579698 -0.0016716415 0.0019005165 0.004862711 -0.0006022642 0.0025565252 -0.0028853053 0.0006736886 0.0022978547 -0.0010661212 0.005213662 0.00521558 0.0016305955 -0.003268105 -0.00044961672 0.000702863 -0.0055647157 0.0014221042 0.004378185 -9.2083195e-05 -0.0043377555 -0.00402748 -0.0041589993 -0.004745205 -0.004369444 0.0026393507 -0.0042844643 -0.00063963636 -0.00024280322 -0.00055862975 0.00014753427 -0.00085445645 0.0031255737 0.0035096896 0.0007452962 -0.000365232 0.0011498621 0.00449917 -0.0016684673
jabe -0.0053051338 -0.0014167591 -0.0021036838 0.0045073857 0.0044457824 -0.0015842693 0.0037104974 -0.004182853 -0.0024084668 0.0035475055 0.00091145287 0.0023656657 0.0031464125 0.0016779647 0.002720075 -0.001482516 0.0018576232 -6.1525156e-05 0.0012381345 -0.0022481962 0.0019918098 -0.0016673019 -0.0022695584 0.001991951 0.004549428 -0.0027641384 -0.0029750613 0.0017031027 0.0047890446 -0.0019633255 -0.0023379028 -0.0005932724 -0.0051053744 -0.0029621886 8.866733e-05 -0.0021061457 -0.0012942136 -0.004192395 -0.00022188183 -0.0006670468 -0.0003872246 -0.0043561086 -0.0026952308 0.004825404 -0.0008497639 -0.004274262 -0.0026994378 -0.0020081515 -0.00092481764 0.004463917 -0.0039662886 -0.0017278907 0.0029366538 -0.000674237 0.00032415445 0.0032561468 -0.0048022075 -0.004434386 0.005064579 0.004380582 -0.002672366 0.0017440042 0.0043690405 0.002093831 0.0009424657 0.0015141036 0.004574534 -0.0037184223 -0.004534188 0.002335067 -0.0046164603 -0.004665115 0.0016444152 0.003988602 -0.0025999763 0.0030997621 0.0030639528 0.0024084041 -0.0023715356 0.001763237 -0.0044341628 0.0047795796 -0.005133517 -0.00019172678 -0.0012355568 -0.0017265285 -0.0039791586 0.0033620638 0.0013260983 -0.0042818114 -0.0041434853 -0.0016841482 -0.004922236 -0.004598011 -0.00045133766 0.0010501592 -0.004006012 -1.5197514e-05 -0.0010826662 -0.0012562469
tai -0.00617169 0.0030907681 0.0020743818 0.0006037293 -0.001573734 -0.0006728378 0.00435071 -0.00194023 -0.0016796557 0.00095806003 0.001588131 0.0021825624 0.00035648418 0.00215279 0.0015639748 -0.00013127114 0.0014898145 -0.001450751 0.00068786746 0.0034642552 0.0051774816 -0.005324614 -0.003820955 0.0029582765 -0.00055691786 0.0048082415 0.005444041 -0.003633053 -0.0025716748 -0.0034247588 -0.0014534064 0.0036959602 -0.005547699 0.00028082827 -0.0010036362 -0.0017840737 -0.004721918 -0.0025807272 -0.0013922118 0.0010175457 -0.0004615037 0.0031037664 0.005376719 0.0016003823 -0.0021494715 0.0030113067 -0.0011766879 0.0048365546 -0.00084328355 -0.0007369654 -0.0038573272 -0.0008137756 0.0048773135 -0.0002213247 0.00024848228 -0.002988309 -0.0045960248 0.0032371136 -0.0028915978 0.0042592324 0.0046183956 0.0008869251 -0.0009403461 -0.0033173673 0.001050421 -0.0017903886 -0.0019798495 0.0034714967 0.005546485 0.0019566317 0.0030339027 -0.0014420721 0.0048589273 -0.002315973 0.002676026 -0.0031953745 -0.0030645425 0.0031687783 -0.0023722781 0.003242365 0.0015836934 -0.00445979 -0.0029827007 0.0008132986 4.1243707e-06 0.00066632987 5.3056265e-05 0.00033266915 -0.0038627915 0.00081892114 0.0016413655 9.728589e-05 -0.0037955781 0.002936839 0.0030105878 0.0009886218 0.0030030785 0.005588574 -0.0026947875 -0.0027640953
mood -0.00526584 0.002584568 0.003574485 -0.002789742 -0.000632959 -0.0034109205 0.0046345764 -0.0048838644 0.003960441 0.0017671265 0.0029922877 0.0044815433 -0.00050192786 -0.0002874006 -0.0035640318 0.0020581954 -0.001610065 -0.0046312287 0.0004491868 -0.00018872444 -0.0030215925 -0.005605311 0.005089717 -0.0029991127 0.004546537 -0.0017882528 0.0043131923 -0.0018134618 0.004461043 0.0014985361 0.005244413 -0.0031090116 0.00047017552 -0.005140039 -0.0039030453 -0.0027972213 0.0007630499 0.002949019 0.0040799575 -0.00047731263 -0.001168192 0.0016981113 0.002803816 -0.001778831 -0.0022055209 0.00069733354 -0.0013104635 0.003029822 0.0030426953 0.001670803 0.0045553558 -0.0003964076 -0.0026060613 0.004606407 0.0016116487 -0.00049012364 -0.0024317 0.0009985099 0.005076323 -0.00173444 -0.0006867548 0.004283778 -0.0029054426 -0.00037342982 0.00068233156 -0.0045964597 0.0045802738 -0.00500739 0.00044023225 0.003681381 0.0032318851 0.0027024911 0.0033209887 0.0021482743 -0.002323255 0.0009277679 -0.00019927861 -5.0970888e-05 -0.0035686155 0.0017055975 -0.004755886 0.0019492526 0.0016876954 0.0029829221 -0.0031239924 0.0016265269 0.0002110498 -0.0052973977 0.003690591 -0.0052011185 -0.0048599574 -0.0042130672 -0.0025983255 -0.00089865114 0.000729484 0.0011220103 0.0032717672 0.005135079 0.0022735922 -0.0031921985
phone 0.00095779204 0.00060095143 -0.00094069546 0.0009146722 0.0028115506 -0.0035893552 -0.0005206484 -0.0006897609 -0.0018135324 0.0030294242 0.0018716063 -0.0012464911 -0.002906018 -0.00077961804 0.0041853962 -0.0023714544 0.0029817342 -0.0009898439 -0.0018038285 0.0042146654 0.0020124635 0.0032913652 -0.0032277969 0.0011248104 -0.003232219 0.004898008 0.0055902293 0.003772143 0.0017237733 -0.0021164587 -0.00017800803 -0.00037814135 -0.0021747085 0.002368471 0.0033225636 -0.00388576 0.0010841143 -0.0019772314 0.003878281 -0.00048961584 -0.0023277635 0.0036827915 -0.00013496188 0.0036531738 0.0026888843 0.0043594697 0.002547098 -0.0003924374 -0.0014839371 0.00168915 0.0017334364 0.00010771489 -0.00084375805 -0.0001994289 -0.0025903739 0.001244217 0.0033392378 -0.0002232013 -0.0030747454 0.0016784027 0.0051818523 -0.0031077727 -0.003010866 -0.002821406 0.00024290904 0.00077060953 -0.0039810427 -0.0047715376 0.0001636579 0.004280402 -0.0035961843 0.0046345135 -0.0024443879 -0.0022582049 0.0007511889 -0.0025035571 0.0031432277 -0.0023205117 -0.0020661524 0.0049025402 0.0026772348 -0.0013677937 0.000107178355 0.002084457 0.0016162066 0.0032365709 0.004841179 -0.005015053 0.004865429 -0.00060514605 -0.003265559 0.00039513002 0.003295775 -0.0012317287 -0.0008111777 0.0032869892 -0.0009107555 0.0033251795 0.0030729424 0.003714942
gulo -0.0045866547 -0.00028604848 0.00018784299 0.0014526891 -0.00023178567 0.0011526371 0.00025852842 -0.001988108 0.0016776486 0.0005888504 0.005380595 0.0021169726 -0.0030201965 0.0017657377 0.000796096 0.0051278244 0.0041759377 -0.0020457895 -0.001444381 -0.004719066 -0.0044388385 -0.005057889 0.0015673738 0.000205759 -0.00027604448 -0.001274312 -0.00091652904 -0.0034209478 -0.0027433685 0.000526726 0.0026124422 0.0039017354 -0.003306192 0.0016463306 0.0015945304 0.004732764 0.0043316963 -0.0050080987 0.0011345551 -0.004328071 0.0010822958 -0.00018743283 5.4428034e-05 0.0036520509 0.0028411576 -0.002470335 0.00039088345 -0.004454043 0.0013832235 -0.0015487099 0.001250304 -0.004489852 -0.0039151157 0.0020598047 0.00347265 -0.00440268 0.0011259192 -0.005164369 -0.0035703988 -0.0018036509 -0.0041302065 0.00091368833 -3.446202e-05 -0.0012675631 0.0034767832 0.003958682 -0.0038919274 -5.6211273e-05 0.002159496 -0.0018546497 -0.0015725396 0.0037052345 0.0021324207 -0.0006192862 0.0010633682 -0.0019984285 0.003475732 -0.004595911 -0.005304487 -0.0034657242 -0.002861421 0.0006942086 -0.0044802562 -0.0024210613 -0.003517898 -0.00529076 0.0021556967 0.0008300974 0.0051498367 -0.0006552123 -0.005032307 0.0028908693 0.0039717313 -0.001986534 0.002944957 0.0001105126 0.0016891973 0.0054719998 -0.002019795 -0.0044860514
chole -0.0047946535 -0.0050959545 0.003775249 -0.005040957 0.002873754 0.00033088963 0.0012320171 0.0007038661 -0.0007906857 0.003756337 0.003640989 0.0029674051 -0.0031885637 0.0041784933 0.004179696 0.0027568808 0.0046015843 0.0037797245 -0.0041597737 0.0031026641 0.004582772 0.00017340189 0.0041557886 0.0006134295 0.0050248844 0.000235705 -0.0016344718 -0.00418763 -0.0033642896 0.0008661872 0.0032636684 -0.00022186448 -0.0049145934 -0.0037501017 0.0011498907 -0.0004835045 0.0023036706 -0.00049743615 0.0020703583 0.00011606022 0.0048852568 0.0049690567 0.0033349139 -0.00093611254 -0.003057433 -0.00027719303 0.0042870585 0.004155769 -0.004125779 -0.005091992 -0.0005865317 0.0028176864 0.0025093884 0.0044287415 -0.0014315184 0.0034252973 0.0045690006 -0.0037849122 0.0027928662 0.0035400535 -0.0017317389 -0.0027421657 0.004872897 -0.002736719 0.000858323 0.0012709253 0.00052832783 -0.003901616 -0.0021589636 -0.0025275394 0.0002030848 -0.0002301817 -0.002315216 -0.0015101506 0.0015781542 0.001265955 0.0013568935 -0.0022463214 -0.0030404388 0.0020985934 0.0041155717 -0.0032698712 0.0012015903 0.0017606646 -0.0027847022 -0.003984295 0.0015406202 -0.001622981 0.003749254 0.0043847216 -0.00299381 0.0035441234 0.0023216498 -0.0020228156 -0.0037809866 -0.0017127006 0.0041759512 -0.0034313605 0.0010256624 0.0028751802
monne -0.0014017553 -0.00023355157 -0.0041047633 0.0042289435 -0.0033876766 -0.00070978835 -0.0022359723 -0.0021538367 0.0023579972 -0.0043853694 0.0044074734 -0.0036428473 0.0027311938 0.0009897216 -0.0023932979 0.0045252335 0.004191642 -0.0017187822 -0.00045243802 -0.0016682822 0.0010842718 0.0031538664 0.00088589155 -0.0010257587 -0.004251801 0.0015574576 -0.00063626555 0.0014704267 0.00049616594 -0.0018083374 -0.0017393779 0.0019447618 -0.004759257 -0.0016863402 -0.004606328 -2.2543536e-05 -0.005208699 -0.0009137928 -0.0037495648 -0.0007048934 0.0037749342 0.0034376564 0.0034103768 0.0050363266 -0.00028338662 0.00012609542 0.0019113381 0.002848968 0.0029676082 0.002419819 -0.003243322 -0.0029277408 0.00057789637 -0.0008755636 0.00095536164 0.0006265691 -0.0007747056 -0.0020143837 0.0018785278 -0.0024638271 -0.0016920086 0.004084504 0.0034737291 0.0027476358 0.0052140895 0.0041203345 -0.0030171415 -0.002678046 -0.003716552 -0.0041382066 -0.0044273967 -0.001970015 -0.0041983505 -0.0023197362 -0.00023525665 0.002485544 0.0033110077 -0.0014162007 0.0010889182 -0.00081997004 -9.411429e-05 -0.0038339926 -0.004341884 0.0014283971 0.0022149913 -0.003052123 -0.002590146 0.0004362387 -0.000987289 -0.0019585758 -0.0016611731 -0.0028390656 -0.004065371 0.0043671126 0.005112215 0.003540621 -0.0046451725 -0.0032963536 -0.0024765686 -0.0035803486
u -0.004160972 -0.0039675944 -0.0028064584 0.0023525062 0.0011165439 -0.00093802484 0.0036163165 0.0033299916 0.004772902 -0.0015956624 0.0008927053 -0.0046291994 -0.002163555 0.003969197 0.0037776616 0.00062988495 -0.0012502908 -0.003660814 0.0039323703 -0.0039027173 0.004120779 -0.005832522 0.0026462805 0.0030724895 0.00061208935 0.001953984 0.005459416 0.0015573647 0.0039488985 0.001432929 -0.0034241779 0.0004120226 -0.002363259 0.004625093 0.0024817183 0.004628267 -0.00062795356 0.0002618894 -0.0042696693 -0.00055778836 -0.0036871892 0.004758153 -0.0027974967 0.0044837384 0.001750289 0.0048683467 -0.0023942078 0.00411001 -0.003128 -0.0018072964 -0.003933469 -0.0038636304 -0.0036222544 -0.0023255798 -0.0016460227 0.0037854244 0.00424437 0.0016641017 -0.0024924844 -0.003980364 -0.001381977 0.0061722863 0.00037496327 0.0011792633 -0.0024543502 -0.00046540372 -0.0028637394 -0.0031464542 0.0015637173 0.0015692489 0.0014719473 -0.002833978 0.003366123 -0.0037761945 -0.0011192355 -0.000593662 0.0037490951 -0.0047804764 0.0036223128 -0.004776088 -0.00064004277 0.0032451807 -0.004210186 -0.0028658863 0.00048149514 -0.004119413 -0.00031419192 0.0029306675 -0.0038209017 0.0015360282 -0.0027515444 0.0029308847 0.0012891764 -0.0026420827 -0.0012499564 -0.0015103152 -0.0047265473 0.004119081 -0.0009247439 0.0027683324
keno 0.0018029024 -0.002383048 0.0021931317 -0.0019970497 -0.005188969 -0.0016937322 -0.0009572548 0.0020284147 -0.0007207571 -0.0031845286 0.0023802626 -0.0049646557 -0.0022569818 0.0020081783 -0.00035053387 0.0029210614 -0.0044392664 -0.004593937 -0.0006388039 -0.004178262 -0.0019327076 -0.001847601 0.0008354594 0.0037194209 0.0027004525 -0.004244653 0.0023947507 -0.0021067122 -0.00053189276 -0.0032296404 -0.0036405304 0.004037441 -0.0014998117 -0.0023593886 -0.0011123529 -0.003995977 0.00072968256 0.0037335765 -0.004063265 0.0022046473 -0.0005628204 0.0014382453 0.0035097266 0.0023463562 0.00479962 -0.0044438806 0.004729192 0.00060682406 0.0036630752 0.0029012181 0.0009949942 0.0017728072 0.0031366858 0.0008097435 0.0010741396 0.0024555218 -0.0020554336 -0.0048833964 0.0047162427 -0.0008724125 0.004317731 0.0005555966 0.00055425643 -0.0027118216 0.003957997 0.00079346425 0.0035433497 0.0009293527 0.0052011567 -0.0040167565 0.0038677603 -0.0027235535 0.0024194487 0.00092562736 -0.004066853 0.000705239 0.0039358917 0.00022142722 0.0007092807 -0.0038378218 -0.0014764292 -0.0034986192 -0.0014055028 0.004054439 -0.0037256132 -0.0008669761 -0.0028351753 -0.0025796397 0.0041962136 0.0009839374 -0.0035888234 -0.0011237977 0.0013105172 0.0030326627 -0.0023671675 0.0039151385 0.0038131543 -0.0016412388 -0.0022390098 0.0046945163
use -0.0053799385 -0.0035640583 0.0037062264 0.0006319549 0.0034557588 0.0003652907 0.0036369436 -0.0018871647 0.0010067349 0.0014960696 0.0005591017 -0.0032392158 -0.0024175164 0.0044094888 0.00046802545 -0.0017892672 -0.0031292217 0.0033987903 0.004165946 -0.0027570268 0.0047056885 -0.004139579 -0.0025376936 -0.0038904226 -0.00039918217 4.0407962e-05 0.004107862 -1.4290818e-05 0.0028041564 -0.0026587348 0.0025340295 0.00017827771 -0.0006246959 0.0014140258 -0.0023355794 0.0019559045 0.0010475037 -0.0011731861 -0.000390465 -0.00045284998 -0.0047060875 -0.00096295995 -0.004176415 0.0041648448 -0.002159487 -0.003142932 0.001807178 -0.0025769153 0.003628694 -0.0007210677 0.004094686 0.0032265834 0.0022017206 -0.0019358555 -0.0026379235 0.002852797 0.0015871588 0.003367031 0.0048788833 0.0002276218 -0.0035787271 0.0021938884 -0.0016856499 -0.004652529 -0.0011955329 -0.0013453821 0.0012999168 -0.0016862758 0.002411509 0.0041807536 -0.0035423674 0.003107733 0.0050991233 -0.0025636456 -0.004092516 0.0028195477 0.0021418615 0.0032531568 0.0011341028 -0.0029250435 0.0010909024 -0.004237779 -0.0013463503 0.0018917976 0.0026489382 0.0026074238 -0.0008478232 -0.002853529 -0.0015769566 -0.0027531886 0.0007393985 0.002918634 0.0032563063 -0.0024069767 0.004620302 -0.0047400375 -0.004466674 0.0030215136 0.0030302086 -0.0019682625
book 0.0041555595 -0.0002666142 0.0013866774 -0.003909719 0.002276801 0.0037355472 -0.002549194 0.004832166 0.0025617243 0.004186479 -0.001999986 -0.0035354148 -0.0008924614 0.000595673 -0.004905634 -0.004223707 0.0037725437 -0.0016818802 0.0045397645 0.0024445099 0.0046100495 -0.0032595496 0.0035607156 -0.0032024088 -0.001818392 -0.002122156 -0.004068816 -0.0045921723 0.004717755 0.0009561442 -0.0035783474 -0.004820519 -0.0050812657 0.00028635695 -0.0034330622 -0.001875311 0.0022834628 0.0018177407 -0.0020476333 -0.0018941222 -0.004212901 0.0023133552 -0.0048052305 0.0017985204 -0.0036715437 0.00058419036 -0.0027642876 -0.0016234686 0.0006029499 -0.0016652297 0.003836092 -0.0044168816 -8.9905865e-05 0.0013283263 -0.00080114754 0.004889222 0.0009639314 -0.0013470922 -0.0023865225 -0.0034930408 0.0048205373 0.0047365013 -0.003087114 0.005095572 -0.0015164197 -0.00016766884 0.003836467 -0.004759659 -0.0040930556 -0.001643454 0.0030794723 0.0020569493 -0.002563275 0.00072539545 -0.0019736832 -0.0047074044 0.0036705874 0.0006977676 -9.735374e-05 -0.004701037 -0.0050702873 0.002328617 -0.003950847 0.0031314818 -0.0047197104 0.0025161458 -0.0011818839 -0.0052354313 -0.0016719442 -0.002413917 -0.0010458492 -0.002751722 -0.0037057265 0.0001879813 0.0024966875 0.0050682495 -0.00039048636 -0.002766444 -0.0050084535 0.0016942187
din -3.2353437e-05 0.0010274824 0.0017783421 0.0033950368 -0.00019894674 0.0037387244 0.004863045 0.004203016 0.00094290136 0.0038539786 0.0043663867 -0.0049739718 -0.0028341862 0.0056063556 -0.00023407223 0.00286747 0.0052087912 0.0027527022 -0.0011097481 -0.0018893296 -0.0015750461 -0.00078801095 0.004900662 0.0024724884 -0.0017914556 0.004786876 -0.00077176804 0.0035794438 0.001829556 0.00071378995 0.004305447 -0.004320359 -0.0042257053 -0.0046366104 -0.0005722797 0.0004651673 -0.0008131664 -0.0046002907 -0.004767071 0.0042014713 -0.004611657 -0.0038850063 -0.00012662832 0.0022312687 2.3368519e-05 0.0028790424 -0.0009194983 -0.0033683558 -0.004111467 0.00020101652 -0.0014451805 0.004696175 0.0042876843 -0.0009846665 0.0012280657 -0.0021923329 -0.0026970978 0.0031190547 0.0043173954 -0.00447703 0.0025845803 -0.0013012622 0.00069390977 0.0024053021 0.0027536324 0.003611397 -0.00010269525 -0.0018984091 0.0047288802 0.00065885804 0.004511397 -0.0026953216 0.0028525684 0.0050769774 0.003953598 0.0038946907 -0.0015411354 -0.0023188796 -0.0045815273 0.005056239 0.0036760524 0.001054232 0.0038935717 0.0017147553 0.0024186757 0.00047439232 -0.0013164936 0.0043582474 -0.0018682064 0.0042636106 -0.002769969 0.0010953892 0.0019274094 -0.001170207 0.00096806267 -0.00022640351 -0.0010614367 -0.0033799112 0.0024941042 0.0002436268
 0.0021040183 0.001384653 0.0046954416 -0.0011544862 -0.005041761 0.0005710445 -0.0049453885 -0.0031086851 0.002559523 -0.0002042087 -0.0023626487 -0.0036973928 0.00024660234 0.002270181 -0.003492018 -0.0034052348 0.0008146828 -0.0027999333 0.0020443832 0.0021773132 -0.0016413252 0.0038023114 0.0011316459 0.004381305 -0.0047461423 0.004545899 0.00066614425 0.0015707267 -0.001631969 0.0050201113 0.00041278263 0.002216201 -0.0014824299 0.002178275 -0.00014896819 -0.00084941555 -0.004083126 0.0028648768 -0.004822222 0.00030568446 -0.0003123376 0.0012401928 0.0028348553 -0.0012631704 0.0025537119 0.0010109586 0.0046611293 0.0033712562 -0.0017569924 -0.0019834258 0.00087214145 0.000511562 -0.0040183784 0.001370277 0.0013164422 -0.0037079763 0.003849797 0.0011072265 -0.003387693 0.0025437612 -0.0027567064 0.0040485417 -0.0025306891 -8.7288034e-05 0.0039723706 -0.0049110125 -0.0037953998 -0.0011266707 -0.000983986 0.00068703055 0.0009016734 0.0007972916 -0.0020224152 -0.0034328818 0.0040231165 -0.004972618 0.002920239 -0.0022277446 0.0003458789 0.0019493046 -0.0012665748 -0.0022570249 -0.00045725636 -0.0046599293 -0.0026727405 -0.004178332 0.0019176729 0.0013437197 -9.469885e-05 -0.00431756 -0.0034704425 0.0039991396 0.00030544086 -0.003132567 0.002627802 -0.004442654 0.0011124612 -0.000981441 -0.0021428496 -0.004100204
bolle 0.0025767875 0.0027639223 -0.003969586 -0.0026642221 0.0009557354 -0.0036540234 -0.0015854695 0.004425976 0.00073876977 0.0004196496 -0.0033732892 0.0013545337 0.0014847255 0.0019527582 -0.0027389973 -0.0008915547 0.0034548168 0.001647617 0.0025398636 0.0017735434 0.0010034378 -0.0027836382 -0.0024632353 -0.0052881753 0.0014534362 8.512077e-05 -0.0024206727 -0.0012502907 0.004776171 -0.0025974754 0.0028933682 0.0039874916 -0.0005002613 -0.0023831325 -0.00074525067 0.004470108 -0.0013228315 -0.0001031755 0.0025441893 -0.0043267673 -0.0024092975 -0.0030847092 -0.003946682 0.001013086 -0.0013437048 -0.0032967615 0.004597634 0.0007148991 0.0025338104 -0.0018475141 -0.003316264 -0.0026494295 0.0038339086 -0.0041629127 0.0012144877 -0.003846705 -0.001311369 -0.0051229 -0.0021059338 0.0016908629 0.0023451115 -0.0035513705 0.0023626476 0.0018963179 0.005378945 0.0033960596 -0.0012687077 0.004368785 0.0019185974 -0.004418955 -0.0017861709 -0.0032802233 0.002079995 -0.0018400304 0.003699008 -0.0044113966 0.003485612 -0.0053736293 -0.002354632 -0.0044462574 -0.00393977 -0.0030625362 -0.00035672428 -0.0018097324 0.003444575 0.0034938992 -0.0017969139 0.00430601 0.0044099065 0.00017605556 0.0028750908 0.00075297744 -0.0015137114 0.0008353801 0.0049696937 -0.0031561663 -0.000654584 -0.0003422555 0.00069363095 -0.0045211697
and -0.0043419483 -0.0029711148 0.004210174 0.00095248653 0.0018578375 0.0027601724 -0.0047730287 -0.0020028222 0.002592404 -0.00014211005 0.0010190887 -0.0018232116 -0.0033754131 0.005784752 0.0007137136 0.0038838538 -0.0034521692 -0.003565252 0.0033610559 0.0026281758 -0.0046380456 -0.0034515958 -0.004682412 -0.0011437875 -0.0037479138 0.0024719413 -0.0008890141 0.003980824 -0.004836531 0.0003462806 0.005034042 -0.0053544748 -0.0037189028 0.0049779946 -0.0041336855 0.000319152 -0.0029432576 -0.004157452 0.0011583819 0.0028807796 0.0037093754 0.0008502893 -0.0009141661 0.0036259359 0.0040919515 8.336871e-05 -0.004423943 0.0009248935 -0.0011355507 0.0018677878 0.0045905258 -0.004574525 -0.0019329815 -0.003853633 0.00084670883 -0.0027661002 -0.0047498103 0.0038323097 -0.004463983 -0.0022427698 -0.0016144903 -0.003131304 -0.0019367038 -0.001285513 0.0027834002 0.0026651458 -0.0020618248 0.0025376552 0.0015054946 -0.002509009 -0.0017842039 0.0050908 0.00043079804 -0.003913966 0.0018129029 0.0024870501 0.0020727639 -0.005781603 0.0018873173 0.003975826 -0.0032756946 -0.003306608 0.004730013 -0.0025381276 0.0048515117 -0.0022916459 0.0010364453 -0.0029304319 -0.003617873 0.0024770298 -0.005137159 0.0035131492 -0.0032209326 0.0039691096 0.0035879447 0.0010962591 -0.0014551344 -0.0031722423 0.0022748257 0.003766473
bochor 0.0006548564 -0.0054261945 0.0033196958 0.0031627668 0.0008796126 0.00025976726 -0.0021504075 5.2518208e-05 0.0008226626 0.0023151285 -0.0024705853 -2.8961867e-05 0.0016349758 -0.00014321438 0.0009303231 -0.0003610703 -0.0020807507 3.4728633e-05 -0.0013817794 -0.00016149419 0.002430926 0.0022935465 -0.004907496 0.0022819932 -0.0014352598 0.0042890916 -0.001066536 -0.003947623 -0.004531489 -0.0010853609 0.001151971 0.0014170901 -0.0023600236 0.0040856423 -0.0005420667 -0.0007061316 0.0002502575 -0.0021782066 0.0038625542 0.0018856295 0.0031443778 0.0012261663 0.0035328842 -0.0031277142 -0.0044736457 0.0007158512 0.0051696333 -0.0014017395 -0.0026134977 -6.454221e-05 0.0019503919 -0.0016127183 -0.0029749884 -0.004064231 -0.0041428353 -0.00250633 -0.0011411549 -0.0009811281 0.0012615831 3.0340877e-06 -0.0020271887 0.0011774548 -0.0011937716 -0.0013714706 0.0013540424 0.0047082314 -0.0021450338 -0.0040033683 -0.0027718975 0.0006027992 0.002472118 0.004246943 -0.0048577907 0.0023465683 0.004117274 0.003356335 -0.0034466807 0.002189281 -0.0043639685 0.0041222023 -0.0012304769 0.004325021 -0.0024286194 -0.0010998958 0.0044953483 0.0043650093 -0.00040946295 -0.0030847676 -0.00088633434 -0.004842053 0.0010270553 -0.0010103984 -0.0030832887 0.0041845655 0.00034716833 0.0031642832 -0.0017487172 0.00031935002 0.0048238165 0.0023766677
jibon -0.006251412 0.0006915765 0.0033118925 -0.000979984 0.0024085992 0.0035567286 0.001485931 -0.0039497972 -0.0037252977 0.0018340779 0.000895697 -0.0012593655 0.002287601 0.002662319 -0.001383288 0.0025973574 -8.5116786e-05 0.0028047194 0.0037436774 -0.005067231 -0.0024549456 -0.0051518013 0.0027447161 -0.002785247 0.0035713562 0.00036422824 0.0015912226 0.00060952647 0.0040020407 -0.0011224588 0.0047015445 0.0032915964 -0.0026823275 -0.0036833805 0.004184237 -0.00158259 -0.00071049586 -0.005428333 -0.0029970144 0.0026628699 0.0024427404 0.0026677223 0.003903444 0.004217215 0.00046077947 0.0017626327 0.005370021 -0.0008211055 -0.0022798802 -0.0008909042 -0.0045033484 -0.0020614355 -0.003685324 0.0056070243 -0.0043285075 0.0012161691 -0.0034870987 -0.003080194 -0.0041884077 -0.0026984625 0.0047569363 0.0013467257 -0.002311219 0.0041977987 6.5347485e-05 0.002257533 -0.004979079 0.0034537606 0.002367152 0.0015047324 0.0014902744 -8.1634e-05 -0.001002127 0.002232366 0.002714182 -0.0020898178 -0.0025432617 -0.0038384255 0.0013270422 0.0022839368 0.0017560817 0.0013380159 0.0010146449 0.0033621904 -0.0019938094 -5.7136403e-05 -0.0037515787 -0.0036041918 -0.0027155185 0.0017972044 -0.0041953935 -0.0030477007 0.0012905682 0.0036542416 -0.0015019964 -0.0015205853 0.0042978534 0.00540844 0.004381532 0.0021165097
dkh -0.0051726243 0.0029227287 0.0049914457 -0.0046533593 -0.0024880331 -0.004520939 0.004585984 0.0026546658 0.0006541003 -0.004740807 -0.0029236241 -0.0031432647 0.0008656292 -0.0038822128 -0.0022328133 0.0034072453 0.003222222 -0.0040512416 -0.00467555 -0.00081867265 -0.0023475464 0.0010147721 0.0030262282 0.0009479284 -0.0029721796 0.0009853457 0.0050654956 0.00084393204 -0.004496322 0.0039591077 0.004268244 0.0005643269 0.0017723348 0.0015012906 0.0013228584 0.0014320869 -0.0038212931 -0.001840783 9.670556e-05 0.0018070465 -0.0023580906 -0.0008982608 0.0051908963 0.0028932448 0.0040515643 5.4367745e-05 -0.00044744808 0.0036008453 -0.0025093001 -0.0039828257 0.00429371 0.0018071565 -0.0028798678 -0.004180556 -0.0010310147 -0.0034261947 -0.002848264 0.0002420342 -0.0025685197 -4.2759424e-05 -0.003690827 0.0027963705 0.0015434964 0.002651195 -0.0046004597 -0.0024692093 -0.0016152428 -0.0017558064 0.0028811055 -0.0042414186 0.0037170623 0.0032287017 -0.00189996 -0.0033821976 0.0023876734 0.0031471655 0.00040155902 -0.0030669863 0.0031172214 0.00026367526 -0.004769765 -0.0010433043 0.0005921263 0.0015446105 -0.0018492121 -0.00026695576 0.0017113801 0.003179079 -0.0032525302 -0.0041461294 0.003839517 0.0017266275 -0.0017457926 -0.00058600307 0.0021843242 -0.0014670396 0.0044096042 0.0010987486 -0.0047732783 -0.002238136
last -0.0027096595 -0.0019880629 -0.0023431294 -0.002886646 -0.004254436 0.0021778618 -0.0021017666 -0.000706568 0.0019500226 -0.002504162 0.004110068 -0.0022280377 -0.0020172838 0.004526394 -0.0028721832 0.0033046189 0.0045547057 0.0034789029 -0.002675894 0.0026135556 -0.0026001062 0.00022688507 -0.0023539201 -5.7038065e-05 -0.0034230344 -0.0029580083 0.0027068176 0.0023268783 -0.0042245365 0.00028436043 -0.0026628943 0.0023024983 -0.0053621368 0.0031860585 -0.0032804294 -0.003367269 -0.0021299652 0.00062336674 0.0024450915 -0.0037894961 0.0013785966 -0.0038318357 0.00492661 0.0014406604 0.0007988428 -0.0023508004 0.0007455908 -0.0046141306 0.0019623414 -0.0007590834 0.000406507 0.0026048154 -0.0038085105 0.0018975539 0.0011766677 -0.0033989032 0.0019204912 -0.0007789631 0.0047815125 8.9065274e-05 0.0010892603 0.004130359 0.00059806986 0.00014038765 0.003648715 -0.0016309795 0.0012799479 0.00070913933 0.0052112807 0.0042648395 -0.00038433142 -0.0036750562 -0.0018499859 -0.0028111602 0.0012067847 -0.0052265814 0.002792935 0.0017515152 -0.002400374 0.003090598 0.0046336832 0.0021563815 0.0034154714 -0.0012841391 -0.0045247884 0.0005414104 -0.004466653 0.0028686088 -0.0017411411 0.0033723519 0.0011817892 -0.0011136243 0.002733348 -0.0019259796 0.0023891649 -0.004320838 -0.0015141477 0.004085242 -0.0033706732 0.0020849342
we -0.0004985819 -0.004547154 -0.004067455 -0.00042306058 -0.0012110261 -0.0007943884 0.0003651872 0.0036804692 0.0056995526 0.0009644763 -0.0023163268 0.0007160782 -0.0019955249 0.0012216179 -0.00023074646 -5.26702e-05 0.004951217 -0.00034492387 -0.0042330073 0.0016624759 -0.001362542 0.0025848807 0.0012733421 -0.0024582322 -0.004911492 -0.00041968425 -0.001672765 0.0041120504 0.0016314612 0.001192845 0.0043170624 -0.003274727 -0.00040221386 0.004318247 -0.0039309994 -0.0034958853 0.0043397555 0.002864465 0.0019738334 -0.0025057613 0.0011882132 -0.0045531327 0.0038874024 -0.00195701 0.0027083787 0.004733327 0.005123364 0.004499264 -0.0029179284 -0.0052937027 0.001586108 -0.0041281558 -0.0038095096 -0.004248306 0.0048532155 -0.0023227339 -0.0014261429 -0.0042627263 -0.0011837312 0.002661763 0.002148788 -0.0022216851 0.0048222956 0.00083064457 -0.00012178223 0.0038204114 0.0009214478 0.001083993 0.000950784 0.0045157042 0.003992837 0.005033639 0.0032682272 0.0032460478 -0.0033356494 0.0023850317 -0.0020487949 -0.0025853324 0.00032922562 0.0015747112 -0.0026993533 -0.0017356102 0.0018019278 0.004578999 -0.0020406814 0.0043650437 0.0030201147 -0.004297597 0.0018602374 -0.0028535167 -0.0009966362 0.00049314124 0.00034382078 0.004409213 0.002046538 0.0008166511 0.001207781 0.0013286341 0.0042189546 -0.00026295456
niea 0.00040921514 -0.00044795722 0.0035099103 0.0018550494 -0.0040550223 -0.002825271 0.00096858444 0.0051193885 0.0028173497 0.0003020554 0.005609666 0.0017789114 0.003710777 -0.0032166692 0.0025195188 0.0029140909 -0.0039220266 0.005106808 -0.003040974 -0.0020005219 -0.0025914588 0.0018210709 -0.004002541 -0.0023802384 -0.00032870873 -0.0006983128 -0.0009962606 0.0043404424 0.001246003 0.004851226 0.00320948 -0.0043159164 -0.0038928383 0.0019321145 0.00041631737 -0.0019009026 -0.0014518077 -0.0054871305 -0.0035810506 0.004645545 -0.00017722342 -0.0015077653 -0.0022409894 0.0049476814 0.0028371483 -0.001253363 0.00026963305 0.0035911049 -0.0020039196 -0.00014208656 -0.0038128942 -0.005114578 0.001252115 0.0044679446 -0.0006782489 0.002490959 0.001099604 0.0006638132 0.00019769349 0.0022701703 0.004679533 0.0047909184 -0.003352256 -0.0013059006 -0.0008080456 0.000885018 -0.004192314 -0.0041959933 0.004880896 0.0023082285 0.0012270045 -0.00056843576 -0.0020419713 0.0018881849 0.004230105 -0.0041589057 0.0024415196 0.0013536257 -0.0013412108 0.0040572165 -0.0036237761 0.0012879453 -0.0031120668 -0.0015203402 -0.00096850016 -0.0052664634 0.004627806 -0.005359402 0.0044832486 -0.001417094 -0.0034674339 0.0014225686 0.0035479271 -0.00018619403 -0.0016285232 -0.0036182017 0.0016049207 0.0038637859 -0.0050330902 -0.0026367297
bari -0.002355688 0.00030093617 -0.004407104 -0.0017575184 -0.0020384968 0.0043711807 -0.0011853607 0.0050706877 -0.0019459171 -0.002583669 -0.002618714 0.0046970365 -0.0021632272 0.0031949887 -0.004459467 -0.003723216 -0.0040896283 0.0017750411 -0.0013055847 0.00071174535 0.002072022 0.0036197938 0.004630259 -0.0024354144 -0.0039037473 -0.0041045635 0.0016659674 0.0042415983 -0.0027868878 0.0027334352 -0.0036883205 0.002672949 0.0029707067 0.0031590706 0.0034645372 -5.3514068e-05 0.0043535004 0.0038699566 -0.004797095 0.004627324 0.0048729912 0.0012706622 -0.0034506985 0.0016348582 0.003435869 0.0025653602 0.0033098662 0.0019256236 0.004299281 0.0037822209 0.004532526 -0.00030093972 0.0042951982 0.0045965486 0.00089429284 -0.0035607223 0.0018612451 -0.002138833 -0.0039008032 0.0030795487 0.0049093515 0.0030675738 0.003996529 -0.0007458434 0.0021441637 -0.005060849 -0.0014568917 -0.0009405257 0.0021491249 -0.0011038564 0.004645798 0.0010419459 0.004708939 -0.0012165557 -0.0012383292 0.002110554 0.0032065813 0.0033785137 -0.0016294696 -0.0028644083 -0.0015660889 0.0031628774 -0.0014590862 0.002848534 0.00097022887 -0.005237552 -0.0028899033 0.00031971536 -0.00071275304 0.0011626197 0.00054959283 0.003848908 -0.0008460611 -0.0023593658 0.0023713124 0.0011129364 -0.0050592204 -0.0025794099 0.004608285 -0.0017523336
car -0.0056828205 -0.0021630293 6.633578e-05 -0.0039193328 -0.004570495 -0.0036213768 -0.00034308096 -0.00062007096 0.0047337543 0.0020623417 0.0037750097 0.0002784758 0.0029498807 0.002324105 0.003990116 -0.0026207084 -0.0012379187 -0.004015456 -0.0016232467 -0.0003684335 -0.001958159 -0.0021986447 -0.002897738 -0.0039496105 -0.0038054374 -0.0007311633 -0.0011239797 -0.0029000558 0.0004049074 0.0021201617 0.0003532226 0.0005358919 -0.0016797205 0.0004244618 -0.0030825082 -0.003135398 -0.0004910784 0.0020904422 0.0039144643 -0.00063612877 -0.0018684351 0.0043445183 0.0013707385 0.0011915844 -0.0021336493 -0.004038688 -0.0035636325 -0.002843937 0.004534177 -0.0014889686 -0.0050454307 -0.0023706488 0.002436709 0.003687033 -0.0039993697 0.003798949 0.0026558847 -0.0039631245 0.004834914 -2.628479e-05 -0.0041040923 -0.0012348745 0.004902799 -0.0035994032 -0.0023870147 -0.0034075642 -0.0015945468 0.0024317321 -0.0005027675 0.002239382 -0.0030373323 0.003200091 -0.0019610047 -0.0005344437 -0.0022232009 -0.0035616371 0.0012296344 -0.00041521378 -0.0007324609 0.0021015932 -0.0039103506 -0.0009381699 -0.001186002 -0.0044670943 0.0017525853 0.0035956434 -0.0024323924 0.0012016754 0.004552158 -0.001500054 -0.0013958932 0.0018588395 -0.0032895696 0.0047734766 -0.0013569272 0.003419472 -0.004209895 0.0009020367 0.0017619466 -0.0028786939
